tree
version=v3
num_class=1
num_tree_per_iteration=1
label_index=0
max_feature_idx=3
objective=regression
feature_names=Column_0 Column_1 Column_2 Column_3
feature_infos=[0.80000000000000004:1] none [0.29166666666666669:1.4166666666666665] [0.33333333333333331:1.3333333333333333]
tree_sizes=2828 2968 2982 2979 2978 2981 2986 2988 2989 2988 2975 2978 2970 2967 2955 2977 2979 2979 2977 2971 2976 2975 2975 2979 2976 2975 2971 2967 2980 2971 2984 2981 2981 2990 2984 2977 2980 2969 2971 2978 2978 2983 2974 2970 2979 2981 2980 2985 2970 2980 2974 2969 2982 2978 2980 2963 2962 2961 2969 2968 2969 2975 2972 2978 2983 2977 2978 2980 2983 2979 2971 2972 2982 2980 2978 2975 2978 2974 2971 2980 2978 2975 2970 2975 2977 2983 2976 2993 2979 2976 2980 2987 2982 2983 2977 2967 2971 2967 2967 2979

Tree=0
num_leaves=31
num_cat=0
split_feature=2 2 0 3 3 2 3 2 2 3 2 3 2 2 3 2 2 3 3 2 2 3 2 2 2 3 2 2 3 3
split_gain=1.87547e-05 3.58709e-05 1.47269e-05 3.04013e-05 1.42463e-05 7.12458e-05 2.38703e-05 7.28214e-05 5.0019e-05 1.88248e-05 2.64403e-05 1.50084e-05 9.78668e-06 7.66861e-06 2.4011e-05 7.16799e-06 1.37609e-05 1.20122e-05 1.00687e-05 6.92924e-06 5.93188e-06 5.41467e-06 4.13606e-05 3.43158e-05 4.58854e-06 4.32313e-06 3.38453e-06 9.95709e-06 7.74503e-06 8.13196e-06
threshold=1.1458333333333335 1.1875000000000002 0.90000000000000013 1.0833333333333337 0.80555555555555569 1.0208333333333335 1.0277777777777779 0.93750000000000011 0.77083333333333337 0.63888888888888895 0.81250000000000011 0.75000000000000011 1.0625000000000002 0.89583333333333337 0.52777777777777779 0.56250000000000011 0.64583333333333337 0.80555555555555569 0.63888888888888895 0.60416666666666685 0.68750000000000011 0.91666666666666685 0.68750000000000011 0.81250000000000011 0.64583333333333337 0.86111111111111127 0.72916666666666685 0.81250000000000011 0.69444444444444453 0.80555555555555569
decision_type=2 2 2 2 2 2 2 2 2 2 2 2 2 2 2 2 2 2 2 2 2 2 2 2 2 2 2 2 2 2
left_child=2 -2 3 12 9 6 7 21 -8 13 19 -12 15 14 -4 17 -17 18 -1 -11 -21 23 -23 25 -16 -6 28 -28 -18 -30
right_child=1 -3 4 -5 5 -7 8 -9 -10 10 11 -13 -14 -15 24 16 26 -19 -20 20 -22 22 -24 -25 -26 -27 27 -29 29 -31
leaf_value=0.031046038773338686 0.030979480661062368 0.03104914174188346 0.031014844199160018 0.031094535587194154 0.031078227450747769 0.030981881985208022 0.031082432211398097 0.031145092404790277 0.030983696056270511 0.031030248584680953 0.03102820928671109 0.031066408050359214 0.031072930301147935 0.03102889647612005 0.031051233361707901 0.031023858403129073 0.031074949991854742 0.0310285355988607 0.031086418999183858 0.030984726956327348 0.031010772127540099 0.031014513969761636 0.031101858690825691 0.031004451913783735 0.031077830358361907 0.031053889809234358 0.031031006399392439 0.0310491285198073 0.031022392607695008 0.031057959041358524
leaf_weight=26 33 42 28 35 36 36 23 25 29 29 72 40 34 42 24 78 32 24 38 32 69 23 33 33 50 37 103 287 25 45
leaf_count=26 33 42 28 35 36 36 23 25 29 29 72 40 34 42 24 78 32 24 38 32 69 23 33 33 50 37 103 287 25 45
internal_value=0.031042 0.0310185 0.0310442 0.0310491 0.0310388 0.0310475 0.0310573 0.0310657 0.0310274 0.0310326 0.031024 0.0310419 0.0310468 0.0310469 0.0310543 0.0310454 0.0310434 0.0310587 0.03107 0.0310087 0.0310025 0.0310534 0.031066 0.0310468 0.0310692 0.0310659 0.0310465 0.0310443 0.0310546 0.0310453
internal_weight=0 75 1388 727 661 275 239 187 52 386 242 112 692 144 102 658 570 88 64 130 101 162 56 106 74 73 492 390 102 70
internal_count=1463 75 1388 727 661 275 239 187 52 386 242 112 692 144 102 658 570 88 64 130 101 162 56 106 74 73 492 390 102 70
is_linear=0
shrinkage=1


Tree=1
num_leaves=31
num_cat=0
split_feature=2 2 0 3 3 2 3 2 2 2 3 3 2 2 2 2 2 3 3 2 2 3 2 2 3 2 2 3 3 3
split_gain=1.69261e-05 3.23735e-05 1.32911e-05 2.74372e-05 1.28573e-05 6.42994e-05 2.15429e-05 6.57214e-05 4.51421e-05 1.77511e-05 1.87627e-05 1.60491e-05 1.17334e-05 1.03941e-05 8.83247e-06 6.46911e-06 1.24192e-05 1.0841e-05 9.08703e-06 6.25364e-06 5.35352e-06 4.88674e-06 3.7328e-05 3.097e-05 3.90163e-06 3.05454e-06 8.98628e-06 6.98989e-06 7.33909e-06 4.95473e-06
threshold=1.1458333333333335 1.1875000000000002 0.90000000000000013 1.0833333333333337 0.80555555555555569 1.0208333333333335 1.0277777777777779 0.93750000000000011 0.77083333333333337 0.97916666666666685 0.63888888888888895 0.52777777777777779 0.77083333333333337 0.81250000000000011 1.0625000000000002 0.56250000000000011 0.64583333333333337 0.80555555555555569 0.63888888888888895 0.60416666666666685 0.68750000000000011 0.91666666666666685 0.68750000000000011 0.81250000000000011 0.86111111111111127 0.72916666666666685 0.81250000000000011 0.69444444444444453 0.80555555555555569 0.63888888888888895
decision_type=2 2 2 2 2 2 2 2 2 2 2 2 2 2 2 2 2 2 2 2 2 2 2 2 2 2 2 2 2 2
left_child=2 -2 3 14 9 6 7 21 -8 10 11 -4 -13 19 15 17 -17 18 -1 -12 -21 23 -23 24 -6 27 -27 -18 -29 -28
right_child=1 -3 4 -5 5 -7 8 -9 -10 -11 13 12 -14 -15 -16 16 25 -19 -20 20 -22 22 -24 -25 -26 26 29 28 -30 -31
leaf_value=3.8365371158131615e-06 -5.9393669465807218e-05 6.784357953750129e-06 -2.8651275891705508e-05 4.9908508808584889e-05 3.4415780424347361e-05 -5.7112412388151932e-05 3.8410301330377879e-05 9.7937484737485659e-05 -5.5389044754175024e-05 1.3816651735396592e-05 -1.1164141499742481e-05 3.2130195833295671e-05 -5.244054163778769e-06 -7.8417087325747997e-06 2.9383487237603681e-05 -1.7234814339854682e-05 3.1302194133786547e-05 -1.2791479154354116e-05 4.2197754699277305e-05 -5.4409688874557109e-05 -2.9666775283302465e-05 -2.6112026028821005e-05 5.6865458667964441e-05 -3.5670980331346844e-05 1.1295020561413587e-05 -1.0444219182190157e-05 -4.9055096958224004e-06 -1.8627319950610402e-05 1.5160792524208469e-05 1.0467822234404762e-05
leaf_weight=26 33 42 31 35 36 36 23 25 29 70 29 42 42 71 34 78 32 24 38 32 69 23 33 33 37 103 69 25 45 218
leaf_count=26 33 42 31 35 36 36 23 25 29 70 29 42 42 71 34 78 32 24 38 32 69 23 33 33 37 103 69 25 45 218
internal_value=0 -2.2334e-05 2.0523e-06 6.71769e-06 -3.07893e-06 5.1828e-06 1.45662e-05 2.24822e-05 -1.39009e-05 -8.96488e-06 -1.40114e-05 2.0959e-06 1.34431e-05 -2.32271e-05 4.53319e-06 3.24913e-06 1.30115e-06 1.58667e-05 2.66135e-05 -3.16298e-05 -3.75061e-05 1.08378e-05 2.27854e-05 4.52586e-06 2.2697e-05 4.23978e-06 2.225e-06 1.19434e-05 3.09361e-06 6.77179e-06
internal_weight=0 75 1388 727 661 275 239 187 52 386 316 115 84 201 692 658 570 88 64 130 101 162 56 106 73 492 390 102 70 287
internal_count=1463 75 1388 727 661 275 239 187 52 386 316 115 84 201 692 658 570 88 64 130 101 162 56 106 73 492 390 102 70 287
is_linear=0
shrinkage=0.05


Tree=2
num_leaves=31
num_cat=0
split_feature=2 2 0 3 3 2 3 2 2 2 3 3 2 2 3 2 3 2 3 2 2 2 3 2 3 2 2 3 2 3
split_gain=1.52758e-05 2.92171e-05 1.19952e-05 2.4762e-05 1.16037e-05 5.80302e-05 1.94425e-05 5.93135e-05 4.07408e-05 1.60203e-05 1.69334e-05 1.44843e-05 1.05894e-05 9.38065e-06 8.68193e-06 5.15866e-05 3.69084e-05 1.81265e-05 1.44405e-05 3.32171e-05 1.29588e-05 1.32344e-05 1.34742e-05 1.26089e-05 1.09622e-05 9.08106e-06 6.62832e-06 6.06983e-06 5.67849e-06 5.50841e-06
threshold=1.1458333333333335 1.1875000000000002 0.90000000000000013 1.0833333333333337 0.80555555555555569 1.0208333333333335 1.0277777777777779 0.93750000000000011 0.77083333333333337 0.97916666666666685 0.63888888888888895 0.52777777777777779 0.77083333333333337 0.81250000000000011 0.69444444444444453 0.93750000000000011 0.63888888888888895 0.81250000000000011 0.75000000000000011 0.81250000000000011 0.89583333333333337 0.81250000000000011 0.97222222222222243 0.64583333333333337 0.91666666666666685 0.89583333333333337 0.68750000000000011 0.80555555555555569 0.56250000000000011 0.58333333333333337
decision_type=2 2 2 2 2 2 2 2 2 2 2 2 2 2 2 2 2 2 2 2 2 2 2 2 2 2 2 2 2 2
left_child=2 -2 3 14 9 6 7 -6 -8 10 11 -4 -13 28 15 16 17 -1 19 23 21 22 27 -16 -22 -21 -18 -20 -12 -19
right_child=1 -3 4 -5 5 -7 8 -9 -10 -11 13 12 -14 -15 18 -17 26 29 20 25 24 -23 -24 -25 -26 -27 -28 -29 -30 -31
leaf_value=-2.0085393638199585e-06 -5.6423984929234862e-05 6.4451411335972984e-06 -2.7218709921374195e-05 4.7413087408390965e-05 1.0295918509992017e-05 -5.4256791332186875e-05 3.6489789667741762e-05 9.3040609965100893e-05 -5.2619591287080332e-05 1.3125819423294162e-05 -6.8949084379710257e-06 3.0523685899468203e-05 -4.9818502432009117e-06 -7.4496235638306791e-06 -1.6996701900928243e-05 5.775491482214717e-05 5.0299413305765488e-05 -2.484073158397916e-05 2.1921189822239547e-05 3.7683514264327559e-05 2.8365997569644898e-06 2.8597321471425933e-05 -2.9034936286970389e-05 -6.6959891306136597e-05 -3.0736574553884563e-05 -8.2840635773858848e-06 1.6473765596553374e-05 1.9123827340355901e-06 -3.4764776331839032e-05 -6.1505607482104105e-05
leaf_weight=82 33 42 31 35 162 36 23 25 29 70 22 42 42 71 23 49 28 21 59 22 62 74 27 28 40 21 30 106 108 20
leaf_count=82 33 42 31 35 162 36 23 25 29 70 22 42 42 71 23 49 28 21 59 22 62 74 27 28 40 21 30 106 108 20
internal_value=0 -2.12173e-05 1.94968e-06 6.38181e-06 -2.92499e-06 4.92366e-06 1.38379e-05 2.1358e-05 -1.32058e-05 -8.51664e-06 -1.33109e-05 1.99111e-06 1.27709e-05 -2.20657e-05 4.30653e-06 1.2244e-05 -7.66365e-08 -1.5581e-05 3.54975e-07 -1.71354e-05 4.82263e-06 1.06328e-05 3.70896e-06 -4.44275e-05 -1.03294e-05 1.52342e-05 3.28034e-05 9.06705e-06 -3.00483e-05 -4.2726e-05
internal_weight=0 75 1388 727 661 275 239 187 52 386 316 115 84 201 692 230 181 123 462 94 368 266 192 51 102 43 58 165 130 41
internal_count=1463 75 1388 727 661 275 239 187 52 386 316 115 84 201 692 230 181 123 462 94 368 266 192 51 102 43 58 165 130 41
is_linear=0
shrinkage=0.05


Tree=3
num_leaves=31
num_cat=0
split_feature=2 2 0 3 3 2 3 2 2 2 3 3 2 2 3 2 3 2 3 2 2 2 2 3 2 2 2 3 2 2
split_gain=1.37864e-05 2.63684e-05 1.08257e-05 2.23477e-05 1.04723e-05 5.23722e-05 1.75468e-05 5.35305e-05 3.67685e-05 1.44583e-05 1.52824e-05 1.30721e-05 9.55694e-06 8.46604e-06 7.83544e-06 4.65569e-05 3.33099e-05 1.63592e-05 1.30325e-05 2.99785e-05 1.16953e-05 1.25966e-05 1.13795e-05 9.89335e-06 8.19566e-06 6.75818e-06 1.25745e-05 6.02976e-06 5.98206e-06 5.17714e-06
threshold=1.1458333333333335 1.1875000000000002 0.90000000000000013 1.0833333333333337 0.80555555555555569 1.0208333333333335 1.0277777777777779 0.93750000000000011 0.77083333333333337 0.97916666666666685 0.63888888888888895 0.52777777777777779 0.77083333333333337 0.81250000000000011 0.69444444444444453 0.93750000000000011 0.63888888888888895 0.81250000000000011 0.75000000000000011 0.81250000000000011 0.89583333333333337 0.68750000000000011 0.64583333333333337 0.91666666666666685 0.89583333333333337 0.72916666666666685 0.81250000000000011 0.80555555555555569 0.68750000000000011 0.60416666666666685
decision_type=2 2 2 2 2 2 2 2 2 2 2 2 2 2 2 2 2 2 2 2 2 2 2 2 2 2 2 2 2 2
left_child=2 -2 3 14 9 6 7 -6 -8 10 11 -4 -13 29 15 16 17 -1 19 22 21 27 -16 -22 -21 -23 -27 -20 -18 -12
right_child=1 -3 4 -5 5 -7 8 -9 -10 -11 13 12 -14 -15 18 -17 28 -19 20 24 23 25 -24 -25 -26 26 -28 -29 -30 -31
leaf_value=-1.9081109712715262e-06 -5.3602785390632391e-05 6.1228836698102821e-06 -2.5857777115062723e-05 4.5042431447654967e-05 9.781121852826386e-06 -5.1543951950508124e-05 3.466529609716457e-05 8.8388582691550265e-05 -4.9988612010628424e-05 1.2469527843807426e-05 -9.9248308005967535e-06 2.8997503976651864e-05 -4.7327582126941014e-06 -7.0771422862992659e-06 -1.6146867900438933e-05 5.4867168386854063e-05 4.7784438928439549e-05 -4.0589733597277326e-05 1.2831638014176861e-05 3.5799337043003601e-05 2.694769265813633e-06 3.9562863503306292e-05 -6.3611897946559893e-05 -2.9199746113590666e-05 -7.8698588324533341e-06 -4.7379422677243751e-06 2.7167453122643027e-05 -1.1970866198416976e-05 1.5650078106167107e-05 -3.3892570269864059e-05
leaf_weight=82 33 42 31 35 162 36 23 25 29 70 29 42 42 71 23 49 28 41 38 22 62 32 28 40 21 53 74 69 30 101
leaf_count=82 33 42 31 35 162 36 23 25 29 70 29 42 42 71 23 49 28 41 38 22 62 32 28 40 21 53 74 69 30 101
internal_value=0 -2.01564e-05 1.8522e-06 6.06272e-06 -2.77874e-06 4.67748e-06 1.3146e-05 2.02901e-05 -1.25455e-05 -8.09081e-06 -1.26453e-05 1.89155e-06 1.21324e-05 -2.09624e-05 4.0912e-06 1.16318e-05 -7.28041e-08 -1.4802e-05 3.37225e-07 -1.62786e-05 4.5815e-06 1.01011e-05 -4.22061e-05 -9.81288e-06 1.44725e-05 1.9027e-05 1.38526e-05 -3.1625e-06 3.11632e-05 -2.85459e-05
internal_weight=0 75 1388 727 661 275 239 187 52 386 316 115 84 201 692 230 181 123 462 94 368 266 51 102 43 159 127 107 58 130
internal_count=1463 75 1388 727 661 275 239 187 52 386 316 115 84 201 692 230 181 123 462 94 368 266 51 102 43 159 127 107 58 130
is_linear=0
shrinkage=0.05


Tree=4
num_leaves=31
num_cat=0
split_feature=2 2 0 3 3 2 3 2 2 2 3 3 2 2 3 2 3 2 3 2 2 2 3 2 2 2 3 2 3 2
split_gain=1.24422e-05 2.37975e-05 9.77015e-06 2.01688e-05 9.45128e-06 4.72659e-05 1.5836e-05 4.83112e-05 3.31836e-05 1.30487e-05 1.37923e-05 1.17976e-05 8.62513e-06 7.6406e-06 7.07148e-06 4.20176e-05 3.00622e-05 1.47642e-05 1.17618e-05 2.72093e-05 1.0555e-05 1.13685e-05 8.92875e-06 6.19367e-06 6.09925e-06 1.13485e-05 5.44186e-06 5.39881e-06 4.97134e-06 4.70016e-06
threshold=1.1458333333333335 1.1875000000000002 0.90000000000000013 1.0833333333333337 0.80555555555555569 1.0208333333333335 1.0277777777777779 0.93750000000000011 0.77083333333333337 0.97916666666666685 0.63888888888888895 0.52777777777777779 0.77083333333333337 0.81250000000000011 0.69444444444444453 0.93750000000000011 0.63888888888888895 0.81250000000000011 0.75000000000000011 0.85416666666666685 0.89583333333333337 0.68750000000000011 0.91666666666666685 0.64583333333333337 0.72916666666666685 0.81250000000000011 0.80555555555555569 0.68750000000000011 0.58333333333333337 0.56250000000000011
decision_type=2 2 2 2 2 2 2 2 2 2 2 2 2 2 2 2 2 2 2 2 2 2 2 2 2 2 2 2 2 2
left_child=2 -2 3 14 9 6 7 -6 -8 10 11 -4 -13 29 15 16 17 -1 19 23 21 26 -22 -16 -23 -26 -20 -18 -19 -12
right_child=1 -3 4 -5 5 -7 8 -9 -10 -11 13 12 -14 -15 18 -17 27 28 20 -21 22 24 -24 -25 25 -27 -28 -29 -30 -31
leaf_value=-1.8127055427168849e-06 -5.0922647951114358e-05 5.8167398882298064e-06 -2.456488606009272e-05 4.2790309941795253e-05 9.2920655677069342e-06 -4.8966752597657946e-05 3.2932031140460269e-05 8.3969153463840494e-05 -4.7489182010206703e-05 1.1846050666853054e-05 -6.0539237562228331e-06 2.7547628687465303e-05 -4.4961190871294414e-06 -6.7232849790048987e-06 -1.533952498626288e-05 5.2123811466878341e-05 4.5395218070812657e-05 -2.1569207975906987e-05 1.2190056670653193e-05 2.02708816205439e-05 2.5600298437395042e-06 3.7584723099826081e-05 -2.7739758361349233e-05 -4.8380647431996125e-05 -4.5010451617170748e-06 2.5809084680175249e-05 -1.1372322995262896e-05 1.4867574306360137e-05 -5.6400838657282301e-05 -3.1409581964891442e-05
leaf_weight=82 33 42 31 35 162 36 23 25 29 70 22 42 42 71 23 49 28 21 38 34 62 32 40 37 53 74 69 30 20 108
leaf_count=82 33 42 31 35 162 36 23 25 29 70 22 42 42 71 23 49 28 21 38 34 62 32 40 37 53 74 69 30 20 108
internal_value=0 -1.91486e-05 1.75959e-06 5.75958e-06 -2.6398e-06 4.4436e-06 1.24887e-05 1.92756e-05 -1.19183e-05 -7.68627e-06 -1.2013e-05 1.79697e-06 1.15258e-05 -1.99143e-05 3.88664e-06 1.10502e-05 -6.91639e-08 -1.40619e-05 3.20364e-07 -1.54647e-05 4.35242e-06 9.59609e-06 -9.32224e-06 -3.57149e-05 1.80756e-05 1.316e-05 -3.00438e-06 2.96051e-05 -3.85602e-05 -2.71186e-05
internal_weight=0 75 1388 727 661 275 239 187 52 386 316 115 84 201 692 230 181 123 462 94 368 266 102 60 159 127 107 58 41 130
internal_count=1463 75 1388 727 661 275 239 187 52 386 316 115 84 201 692 230 181 123 462 94 368 266 102 60 159 127 107 58 41 130
is_linear=0
shrinkage=0.05


Tree=5
num_leaves=31
num_cat=0
split_feature=2 3 2 0 3 2 0 0 2 3 2 3 3 3 3 2 2 2 2 3 2 3 2 3 3 2 2 3 2 2
split_gain=1.33156e-05 2.0332e-05 2.48748e-05 1.76757e-05 1.33424e-05 1.08171e-05 2.2051e-05 1.40647e-05 2.09093e-05 1.41793e-05 1.62473e-05 2.0294e-05 1.16758e-05 1.06377e-05 8.80844e-06 1.64104e-05 1.79737e-05 1.65781e-05 8.2467e-06 1.42367e-05 1.10724e-05 7.56781e-06 4.97814e-06 1.26638e-05 4.77087e-06 1.18601e-05 8.91127e-06 1.42157e-05 8.96205e-06 7.79712e-06
threshold=1.0208333333333335 0.80555555555555569 1.1041666666666667 0.90000000000000013 0.69444444444444453 0.47916666666666669 0.90000000000000013 0.90000000000000013 0.85416666666666685 0.69444444444444453 0.89583333333333337 0.91666666666666685 1.0833333333333337 0.47222222222222227 0.80555555555555569 0.81250000000000011 0.68750000000000011 0.77083333333333337 0.56250000000000011 0.75000000000000011 0.60416666666666685 0.80555555555555569 0.64583333333333337 0.63888888888888895 0.91666666666666685 0.68750000000000011 0.72916666666666685 0.75000000000000011 0.77083333333333337 0.85416666666666685
decision_type=2 2 2 2 2 2 2 2 2 2 2 2 2 2 2 2 2 2 2 2 2 2 2 2 2 2 2 2 2 2
left_child=5 3 -3 -2 -5 6 -1 12 14 -10 -11 21 13 -7 22 16 -16 -18 19 -15 -20 -12 -9 -24 26 -26 27 -22 -28 -27
right_child=1 2 -4 4 -6 7 -8 8 9 10 11 -13 -14 18 15 -17 17 -19 20 -21 24 -23 23 -25 25 29 28 -29 -30 -31
leaf_value=-1.9388609772167084e-05 -2.3892390577359417e-05 -5.584040152660402e-05 -4.7393530881631055e-06 -3.665710191440171e-06 4.0982839709613476e-05 3.5236254734627441e-05 4.6064451594100966e-05 -3.5285381788222976e-05 -1.8834903789866077e-05 -2.1280418217496915e-05 2.2527820727999725e-05 -1.0280070773660556e-05 3.0460010475508173e-05 -1.1888643633068094e-05 -1.8006835589810872e-05 -4.7087645213072062e-05 3.9541232189022647e-05 -1.5814415014791025e-05 -3.0967675161913834e-05 4.1201840083106494e-05 -5.7989347588576782e-06 5.6230192374993839e-05 8.16669267744331e-08 -2.886866895486102e-05 -4.6201794430089652e-05 1.2737885378088765e-05 -2.3283869290025908e-05 3.1179421997842169e-05 1.1871490955349551e-07 -2.299103563508162e-05
leaf_weight=22 58 55 42 44 27 20 31 60 48 27 36 32 32 23 67 22 38 21 35 28 51 31 59 105 20 37 50 53 225 26
leaf_count=22 58 55 42 44 27 20 31 60 48 27 36 32 32 23 67 22 38 21 35 28 51 31 59 105 20 37 50 53 225 26
internal_value=0 -1.64194e-05 -3.37142e-05 -3.41483e-06 1.33133e-05 -3.1884e-06 1.88953e-05 -4.20972e-06 -1.00163e-05 4.29039e-06 1.31e-05 2.24765e-05 1.07428e-06 -5.81251e-07 -1.67082e-05 -7.24272e-06 -2.85666e-07 1.98384e-05 -1.88846e-06 1.72591e-05 -3.8533e-06 3.81215e-05 -2.29621e-05 -1.84536e-05 -1.79918e-06 -1.26566e-05 5.78578e-07 1.30458e-05 -4.1363e-06 -2.00738e-06
internal_weight=0 226 97 129 71 1199 53 1146 546 174 126 99 600 568 372 148 126 59 548 51 497 67 224 164 462 83 379 104 275 63
internal_count=1425 226 97 129 71 1199 53 1146 546 174 126 99 600 568 372 148 126 59 548 51 497 67 224 164 462 83 379 104 275 63
is_linear=0
shrinkage=0.05


Tree=6
num_leaves=31
num_cat=0
split_feature=2 3 2 0 3 2 0 0 2 3 2 3 3 3 3 2 2 2 2 3 2 3 2 3 3 2 2 3 2 2
split_gain=1.20173e-05 1.83496e-05 2.24495e-05 1.59523e-05 1.20415e-05 9.76247e-06 1.9901e-05 1.26934e-05 1.88706e-05 1.27968e-05 1.46632e-05 1.83153e-05 1.05374e-05 9.60054e-06 7.94962e-06 1.48104e-05 1.62213e-05 1.49617e-05 7.44264e-06 1.28486e-05 9.99284e-06 6.82995e-06 4.49277e-06 1.14291e-05 4.30571e-06 1.07037e-05 8.04242e-06 1.28297e-05 8.08825e-06 7.0369e-06
threshold=1.0208333333333335 0.80555555555555569 1.1041666666666667 0.90000000000000013 0.69444444444444453 0.47916666666666669 0.90000000000000013 0.90000000000000013 0.85416666666666685 0.69444444444444453 0.89583333333333337 0.91666666666666685 1.0833333333333337 0.47222222222222227 0.80555555555555569 0.81250000000000011 0.68750000000000011 0.77083333333333337 0.56250000000000011 0.75000000000000011 0.60416666666666685 0.80555555555555569 0.64583333333333337 0.63888888888888895 0.91666666666666685 0.68750000000000011 0.72916666666666685 0.75000000000000011 0.77083333333333337 0.85416666666666685
decision_type=2 2 2 2 2 2 2 2 2 2 2 2 2 2 2 2 2 2 2 2 2 2 2 2 2 2 2 2 2 2
left_child=5 3 -3 -2 -5 6 -1 12 14 -10 -11 21 13 -7 22 16 -16 -18 19 -15 -20 -12 -9 -24 26 -26 27 -22 -28 -27
right_child=1 2 -4 4 -6 7 -8 8 9 10 11 -13 -14 18 15 -17 17 -19 20 -21 24 -23 23 -25 25 29 28 -29 -30 -31
leaf_value=-1.8419181552334606e-05 -2.269777112125102e-05 -5.3048381722956864e-05 -4.5023877949764332e-06 -3.482424823563303e-06 3.8933698184943455e-05 3.3474439987912774e-05 4.376122979597459e-05 -3.3521112569966742e-05 -1.7893158080066011e-05 -2.0216397495931706e-05 2.140143028302393e-05 -9.7660661140253069e-06 2.8937013121321799e-05 -1.1294211372328193e-05 -1.7106492468069042e-05 -4.4733263522092873e-05 3.7564171514915011e-05 -1.502369386365726e-05 -2.941929304922399e-05 3.9141749844670165e-05 -5.5089879121320942e-06 5.3418678937539946e-05 7.7583363390196177e-08 -2.7425235369134629e-05 -4.3891703644476368e-05 1.2100992918587165e-05 -2.2119676083093511e-05 2.9620450471345567e-05 1.1277957785043529e-07 -2.1841484480179275e-05
leaf_weight=22 58 55 42 44 27 20 31 60 48 27 36 32 32 23 67 22 38 21 35 28 51 31 59 105 20 37 50 53 225 26
leaf_count=22 58 55 42 44 27 20 31 60 48 27 36 32 32 23 67 22 38 21 35 28 51 31 59 105 20 37 50 53 225 26
internal_value=0 -1.55984e-05 -3.20285e-05 -3.24409e-06 1.26477e-05 -3.02898e-06 1.79505e-05 -3.99923e-06 -9.5155e-06 4.07587e-06 1.2445e-05 2.13527e-05 1.02057e-06 -5.52189e-07 -1.58728e-05 -6.88058e-06 -2.71381e-07 1.88465e-05 -1.79404e-06 1.63961e-05 -3.66063e-06 3.62154e-05 -2.1814e-05 -1.75309e-05 -1.70922e-06 -1.20238e-05 5.49649e-07 1.23935e-05 -3.92949e-06 -1.90701e-06
internal_weight=0 226 97 129 71 1199 53 1146 546 174 126 99 600 568 372 148 126 59 548 51 497 67 224 164 462 83 379 104 275 63
internal_count=1425 226 97 129 71 1199 53 1146 546 174 126 99 600 568 372 148 126 59 548 51 497 67 224 164 462 83 379 104 275 63
is_linear=0
shrinkage=0.05


Tree=7
num_leaves=31
num_cat=0
split_feature=2 3 2 0 3 2 0 0 2 3 3 2 3 3 3 2 2 2 2 3 2 2 2 3 3 2 2 3 2 2
split_gain=1.08456e-05 1.65605e-05 2.02607e-05 1.43969e-05 1.08674e-05 8.81063e-06 1.79607e-05 1.14558e-05 1.70307e-05 1.15491e-05 1.36182e-05 2.03194e-05 9.50999e-06 8.66449e-06 7.17453e-06 1.33664e-05 1.46397e-05 1.3503e-05 6.71699e-06 1.15959e-05 9.01854e-06 4.23366e-06 4.05472e-06 1.03148e-05 3.8859e-06 9.6601e-06 7.25828e-06 1.15788e-05 7.29965e-06 6.3508e-06
threshold=1.0208333333333335 0.80555555555555569 1.1041666666666667 0.90000000000000013 0.69444444444444453 0.47916666666666669 0.90000000000000013 0.90000000000000013 0.85416666666666685 0.69444444444444453 1.0277777777777779 0.89583333333333337 1.0833333333333337 0.47222222222222227 0.80555555555555569 0.81250000000000011 0.68750000000000011 0.77083333333333337 0.56250000000000011 0.75000000000000011 0.60416666666666685 1.1041666666666667 0.64583333333333337 0.63888888888888895 0.91666666666666685 0.68750000000000011 0.72916666666666685 0.75000000000000011 0.77083333333333337 0.85416666666666685
decision_type=2 2 2 2 2 2 2 2 2 2 2 2 2 2 2 2 2 2 2 2 2 2 2 2 2 2 2 2 2 2
left_child=5 3 -3 21 -5 6 -1 12 14 -10 11 -11 13 -7 22 16 -16 -18 19 -15 -20 -2 -9 -24 26 -26 27 -22 -28 -27
right_child=1 2 -4 4 -6 7 -8 8 9 10 -12 -13 -14 18 15 -17 17 -19 20 -21 24 -23 23 -25 25 29 28 -29 -30 -31
leaf_value=-1.7498221661133524e-05 -3.8227068232473638e-05 -5.0395962164409203e-05 -4.2772674143114797e-06 -3.3083024515111571e-06 3.6987011090214193e-05 3.18007205351023e-05 4.1573168522107507e-05 -3.1845057604490043e-05 -1.6998500041154329e-05 -2.4293315558073425e-05 -2.2962774718230917e-05 3.0828943689945242e-05 2.7490159834542285e-05 -1.0729500765750266e-05 -1.6251168975696913e-05 -4.2496599764325025e-05 3.5685961101032603e-05 -1.4272510963478236e-05 -2.7948326813722295e-05 3.7184660764718767e-05 -5.2335397734115014e-06 -1.0612131993639196e-05 7.3704198920325834e-08 -2.6053974877521838e-05 -4.1697118867887183e-05 1.1495942593732302e-05 -2.1013692312408241e-05 2.8139427270633743e-05 1.0713989367003606e-07 -2.0749409472605644e-05
leaf_weight=22 23 55 42 44 27 20 31 60 48 21 23 82 32 23 67 22 38 21 35 28 51 35 59 105 20 37 50 53 225 26
leaf_count=22 23 55 42 44 27 20 31 60 48 21 23 82 32 23 67 22 38 21 35 28 51 35 59 105 20 37 50 53 225 26
internal_value=0 -1.48185e-05 -3.0427e-05 -3.08189e-06 1.20153e-05 -2.87753e-06 1.7053e-05 -3.79927e-06 -9.03973e-06 3.87208e-06 1.18228e-05 1.95904e-05 9.6954e-07 -5.2458e-07 -1.50791e-05 -6.53655e-06 -2.57814e-07 1.79041e-05 -1.70434e-06 1.55763e-05 -3.4776e-06 -2.15629e-05 -2.07233e-05 -1.66544e-05 -1.62376e-06 -1.14226e-05 5.22166e-07 1.17738e-05 -3.73301e-06 -1.81166e-06
internal_weight=0 226 97 129 71 1199 53 1146 546 174 126 103 600 568 372 148 126 59 548 51 497 58 224 164 462 83 379 104 275 63
internal_count=1425 226 97 129 71 1199 53 1146 546 174 126 103 600 568 372 148 126 59 548 51 497 58 224 164 462 83 379 104 275 63
is_linear=0
shrinkage=0.05


Tree=8
num_leaves=31
num_cat=0
split_feature=2 3 2 0 3 2 0 0 2 3 3 2 3 3 3 2 2 2 3 2 2 3 2 2 2 3 3 3 2 3
split_gain=9.78816e-06 1.49459e-05 1.82853e-05 1.29932e-05 9.80786e-06 7.95159e-06 1.62095e-05 1.03388e-05 1.53702e-05 1.04231e-05 1.22904e-05 1.83382e-05 8.58277e-06 7.8197e-06 6.47501e-06 1.20632e-05 1.32123e-05 1.21864e-05 6.30102e-06 5.09722e-05 1.83934e-05 1.21481e-05 2.20344e-05 2.0343e-05 7.11297e-06 1.01975e-05 5.39617e-06 4.29622e-06 7.32555e-06 3.09663e-05
threshold=1.0208333333333335 0.80555555555555569 1.1041666666666667 0.90000000000000013 0.69444444444444453 0.47916666666666669 0.90000000000000013 0.90000000000000013 0.85416666666666685 0.69444444444444453 1.0277777777777779 0.89583333333333337 1.0833333333333337 0.47222222222222227 0.80555555555555569 0.81250000000000011 0.68750000000000011 0.77083333333333337 0.63888888888888895 0.89583333333333337 0.89583333333333337 0.86111111111111127 0.81250000000000011 0.56250000000000011 0.68750000000000011 0.80555555555555569 0.75000000000000011 0.69444444444444453 0.85416666666666685 0.75000000000000011
decision_type=2 2 2 2 2 2 2 2 2 2 2 2 2 2 2 2 2 2 2 2 2 2 2 2 2 2 2 2 2 2
left_child=5 3 -3 -2 -5 6 -1 12 14 -10 11 -11 13 -7 -9 16 -16 -18 19 -15 21 23 -23 -20 26 27 -25 -26 29 -29
right_child=1 2 -4 4 -6 7 -8 8 9 10 -12 -13 -14 18 15 -17 17 -19 20 -21 -22 22 -24 24 25 -27 -28 28 -30 -31
leaf_value=-1.6623311504107817e-05 -2.0484738295102756e-05 -4.787616446347701e-05 -4.0634030440179194e-06 -3.1428879744701344e-06 3.5137660570735873e-05 3.0210681543394458e-05 3.9494508922460582e-05 -1.9687147753951912e-05 -1.6148575059560245e-05 -2.3078650286022043e-05 -2.1814636784256437e-05 2.9287498515126267e-05 2.611565683139361e-05 -3.5441169408538069e-05 -1.5438610488903333e-05 -4.0371769864577805e-05 3.3901662544322837e-05 -1.3558885187930648e-05 5.2004010545455716e-05 4.3070134654107247e-05 -2.1479845954194105e-05 -2.0076278402080387e-05 2.8230056273059745e-05 8.9251726361302042e-06 2.2377414097718429e-05 3.5162617247184056e-05 -1.9610545682922209e-05 -4.3720662051782715e-05 2.6491321332287043e-05 2.3878766212545899e-05
leaf_weight=22 58 55 42 44 27 20 31 224 48 21 23 82 32 72 67 22 38 21 28 29 76 90 32 30 28 38 37 32 20 36
leaf_count=22 58 55 42 44 27 20 31 224 48 21 23 82 32 72 67 22 38 21 28 29 76 90 32 30 28 38 37 32 20 36
internal_value=0 -1.40776e-05 -2.89057e-05 -2.92779e-06 1.14145e-05 -2.73365e-06 1.62003e-05 -3.60931e-06 -8.58774e-06 3.67848e-06 1.12316e-05 1.86109e-05 9.21063e-07 -4.9835e-07 -1.43252e-05 -6.20972e-06 -2.44923e-07 1.70089e-05 -1.61912e-06 -1.28983e-05 9.29426e-07 5.52001e-06 -7.40576e-06 1.18531e-05 6.76612e-06 1.26828e-05 -6.83336e-06 5.31869e-06 -1.09082e-07 -7.93273e-06
internal_weight=0 226 97 129 71 1199 53 1146 546 174 126 103 600 568 372 148 126 59 548 101 447 371 122 249 221 154 67 116 88 68
internal_count=1425 226 97 129 71 1199 53 1146 546 174 126 103 600 568 372 148 126 59 548 101 447 371 122 249 221 154 67 116 88 68
is_linear=0
shrinkage=0.05


Tree=9
num_leaves=31
num_cat=0
split_feature=2 2 3 2 0 0 2 3 3 2 3 3 3 2 2 3 3 2 2 3 2 2 2 2 3 3 2 3 2 2
split_gain=8.83381e-06 1.36448e-05 1.05401e-05 7.17631e-06 1.46291e-05 9.33078e-06 1.38716e-05 9.40683e-06 1.10921e-05 1.65502e-05 7.74595e-06 7.05728e-06 5.8437e-06 1.0887e-05 1.19241e-05 1.22535e-05 5.68667e-06 4.60024e-05 1.66001e-05 1.09636e-05 1.9886e-05 1.83596e-05 6.41945e-06 9.41205e-06 4.87004e-06 4.82129e-06 9.20957e-06 4.10111e-06 5.48085e-06 4.08214e-06
threshold=1.0208333333333335 1.0625000000000002 0.80555555555555569 0.47916666666666669 0.90000000000000013 0.90000000000000013 0.85416666666666685 0.69444444444444453 1.0277777777777779 0.89583333333333337 1.0833333333333337 0.47222222222222227 0.80555555555555569 0.81250000000000011 0.68750000000000011 0.91666666666666685 0.63888888888888895 0.89583333333333337 0.89583333333333337 0.86111111111111127 0.81250000000000011 0.56250000000000011 0.68750000000000011 0.72916666666666685 0.75000000000000011 0.69444444444444453 0.81250000000000011 0.97222222222222243 0.68750000000000011 1.1875000000000002
decision_type=2 2 2 2 2 2 2 2 2 2 2 2 2 2 2 2 2 2 2 2 2 2 2 2 2 2 2 2 2 2
left_child=3 2 -2 4 -1 10 12 -8 9 -9 11 -5 -7 14 -14 -16 17 -13 19 21 27 -18 24 -24 -23 -25 -27 28 -21 -3
right_child=1 29 -4 5 -6 6 7 8 -10 -11 -12 16 13 -15 15 -17 18 -19 -20 20 -22 22 23 25 -26 26 -28 -29 -30 -31
leaf_value=-1.5792143081357198e-05 -1.2310412766007511e-05 -9.6503038753530954e-06 -4.980175822679854e-05 2.8700148723146411e-05 3.7519784546607446e-05 -1.8702790086168519e-05 -1.5341147066768222e-05 -2.192471660063824e-05 -2.0723904605762549e-05 2.7823121279364323e-05 2.4809872863329476e-05 -3.3669109294957408e-05 -1.4666679722288236e-05 -3.8353181926967499e-05 4.1829544408336427e-05 -4.0672062106860917e-06 4.9403811135562141e-05 4.0916629285643938e-05 -2.0405854583690314e-05 8.1350629746642282e-07 2.6818551310725526e-05 8.4789134173964471e-06 3.8270169066631108e-05 2.7486938614112497e-05 -1.8630017498130535e-05 -1.5313786239453799e-05 1.4717512743318674e-05 -3.4166817871058203e-05 -3.0033482107683086e-05 8.9796076645143339e-06
leaf_weight=22 38 111 37 20 31 224 48 21 23 82 32 72 67 22 26 33 28 29 76 36 32 30 28 22 37 45 59 30 24 40
leaf_count=22 38 111 37 20 31 224 48 21 23 82 32 72 67 22 26 33 28 29 76 36 32 30 28 22 37 45 59 30 24 40
internal_value=0 -1.33737e-05 -3.08061e-05 -2.59697e-06 1.53903e-05 -3.42884e-06 -8.15835e-06 3.49455e-06 1.06701e-05 1.76804e-05 8.7501e-07 -4.73433e-07 -1.36089e-05 -5.89924e-06 -2.32676e-07 1.61585e-05 -1.53816e-06 -1.22534e-05 8.82954e-07 5.244e-06 -7.03548e-06 1.12605e-05 6.42781e-06 1.20486e-05 -6.49169e-06 6.22163e-06 1.7232e-06 -1.90725e-05 -1.15253e-05 -4.71523e-06
internal_weight=0 226 75 1199 53 1146 546 174 126 103 600 568 372 148 126 59 548 101 447 371 122 249 221 154 67 126 104 90 60 151
internal_count=1425 226 75 1199 53 1146 546 174 126 103 600 568 372 148 126 59 548 101 447 371 122 249 221 154 67 126 104 90 60 151
is_linear=0
shrinkage=0.05


Tree=10
num_leaves=31
num_cat=0
split_feature=2 2 3 0 3 2 3 2 3 3 3 3 2 2 2 3 3 3 3 3 3 2 2 3 3 2 2 3 0 3
split_gain=1.44961e-05 3.63174e-05 2.18665e-05 1.73786e-05 2.17562e-05 3.1495e-05 1.94903e-05 1.00035e-05 9.34989e-06 8.88514e-06 4.54562e-05 8.39292e-06 7.59382e-06 2.47643e-05 8.84074e-06 1.9357e-05 1.48034e-05 1.04627e-05 1.18398e-05 1.19092e-05 8.49713e-06 9.7507e-06 6.37196e-06 6.20789e-06 1.10304e-05 3.00001e-05 2.33923e-05 5.63886e-06 1.60222e-05 4.62762e-06
threshold=0.93750000000000011 1.0208333333333335 0.75000000000000011 0.90000000000000013 0.97222222222222243 0.56250000000000011 1.0277777777777779 1.1041666666666667 0.63888888888888895 0.58333333333333337 0.52777777777777779 0.63888888888888895 0.52083333333333337 0.56250000000000011 0.77083333333333337 0.80555555555555569 0.69444444444444453 0.86111111111111127 0.80555555555555569 0.75000000000000011 0.86111111111111127 0.85416666666666685 0.68750000000000011 0.63888888888888895 0.86111111111111127 0.97916666666666685 0.97916666666666685 0.91666666666666685 0.90000000000000013 0.80555555555555569
decision_type=2 2 2 2 2 2 2 2 2 2 2 2 2 2 2 2 2 2 2 2 2 2 2 2 2 2 2 2 2 2
left_child=3 23 7 11 5 -5 -6 8 -3 10 -7 -1 -13 -14 16 -16 -15 18 19 -18 -17 -22 -19 -2 26 -26 -25 -4 -29 -11
right_child=1 2 27 4 6 9 -8 -9 -10 29 -12 12 13 14 15 20 17 22 -20 -21 21 -23 -24 24 25 -27 -28 28 -30 -31
leaf_value=-6.8561993669534687e-06 8.3887396185138426e-06 1.8392180457643311e-05 -9.4886783864984124e-06 1.9625278217504139e-05 5.4633437230222626e-05 -4.3180458117233313e-05 -1.3812416248335717e-06 2.9822721538948828e-05 -2.2165046269677721e-05 -1.674726858867295e-05 5.1391875967965464e-05 -1.5386988713045516e-05 5.8468652190640574e-05 3.5241650824900717e-05 -1.932068222106017e-06 5.6543076546707507e-05 -2.8726866504916087e-05 2.1593686174128379e-05 -4.3543780238592424e-05 1.4601166185457259e-05 4.0322688655578531e-05 2.4390729694542563e-06 -9.1886836877353665e-06 1.9941839419694274e-05 4.279011149524844e-05 -3.3974976795434485e-05 7.334490387497558e-05 6.3779873016756038e-07 -6.0553129910461045e-05 -2.9720987790607895e-05
leaf_weight=114 34 30 77 66 24 27 44 50 27 199 24 31 25 25 87 24 29 40 29 35 35 33 29 46 35 20 37 20 23 105
leaf_count=114 34 30 77 66 24 27 44 50 27 199 24 31 25 25 87 24 29 40 29 35 35 33 29 46 35 20 37 20 23 105
internal_value=0 1.01963e-05 -2.93458e-06 -1.03691e-06 -7.85313e-06 -1.20917e-05 1.83886e-05 1.34995e-05 -8.19137e-07 -1.79884e-05 1.32417e-06 5.18162e-06 8.43355e-06 1.03221e-05 7.03343e-06 1.49761e-05 -5.69471e-07 -6.09588e-06 -1.70409e-05 -5.03185e-06 3.09654e-05 2.1938e-05 8.65617e-06 2.75259e-05 3.22409e-05 1.48755e-05 4.3748e-05 -1.75883e-05 -3.20922e-05 -2.12283e-05
internal_weight=0 399 227 1025 489 421 68 107 57 355 51 536 422 391 366 179 187 162 93 64 92 68 69 172 138 55 83 120 43 304
internal_count=1424 399 227 1025 489 421 68 107 57 355 51 536 422 391 366 179 187 162 93 64 92 68 69 172 138 55 83 120 43 304
is_linear=0
shrinkage=0.05


Tree=11
num_leaves=31
num_cat=0
split_feature=2 2 3 0 3 2 3 2 3 3 3 3 2 2 2 3 3 3 3 3 3 2 2 3 3 2 2 3 0 3
split_gain=1.30827e-05 3.27765e-05 1.97345e-05 1.56842e-05 1.96349e-05 2.84242e-05 1.759e-05 9.02814e-06 8.43828e-06 8.01884e-06 4.10242e-05 7.57461e-06 6.85342e-06 2.23498e-05 7.97877e-06 1.74697e-05 1.33601e-05 9.44263e-06 1.06855e-05 1.07481e-05 7.66866e-06 8.80001e-06 5.75069e-06 5.60262e-06 9.95491e-06 2.70751e-05 2.11116e-05 5.08907e-06 1.44601e-05 4.17643e-06
threshold=0.93750000000000011 1.0208333333333335 0.75000000000000011 0.90000000000000013 0.97222222222222243 0.56250000000000011 1.0277777777777779 1.1041666666666667 0.63888888888888895 0.58333333333333337 0.52777777777777779 0.63888888888888895 0.52083333333333337 0.56250000000000011 0.77083333333333337 0.80555555555555569 0.69444444444444453 0.86111111111111127 0.80555555555555569 0.75000000000000011 0.86111111111111127 0.85416666666666685 0.68750000000000011 0.63888888888888895 0.86111111111111127 0.97916666666666685 0.97916666666666685 0.91666666666666685 0.90000000000000013 0.80555555555555569
decision_type=2 2 2 2 2 2 2 2 2 2 2 2 2 2 2 2 2 2 2 2 2 2 2 2 2 2 2 2 2 2
left_child=3 23 7 11 5 -5 -6 8 -3 10 -7 -1 -13 -14 16 -16 -15 18 19 -18 -17 -22 -19 -2 26 -26 -25 -4 -29 -11
right_child=1 2 27 4 6 9 -8 -9 -10 29 -12 12 13 14 15 20 17 22 -20 -21 21 -23 -24 24 25 -27 -28 28 -30 -31
leaf_value=-6.5133895859297923e-06 7.9693051863133031e-06 1.7472571156152601e-05 -9.0142446849797553e-06 1.8644014100097842e-05 5.1901763557301218e-05 -4.1021434676454023e-05 -1.3121799135908739e-06 2.8331585097475912e-05 -2.105679331752644e-05 -1.5909904635662857e-05 4.8822282563302605e-05 -1.4617640737278929e-05 5.5545218056067829e-05 3.347956819925457e-05 -1.8354641358838446e-06 5.3715927303225421e-05 -2.7290522189889153e-05 2.0514000988214322e-05 -4.1366590875409673e-05 1.3871108614174383e-05 3.8306552690171104e-05 2.3171185713374257e-06 -8.7292509463089842e-06 1.8944747288831266e-05 4.0650605348803642e-05 -3.2276229248964234e-05 6.9677659524352968e-05 6.0590860812226315e-07 -5.7525473675923425e-05 -2.8234939569041934e-05
leaf_weight=114 34 30 77 66 24 27 44 50 27 199 24 31 25 25 87 24 29 40 29 35 35 33 29 46 35 20 37 20 23 105
leaf_count=114 34 30 77 66 24 27 44 50 27 199 24 31 25 25 87 24 29 40 29 35 35 33 29 46 35 20 37 20 23 105
internal_value=0 9.68645e-06 -2.78785e-06 -9.85064e-07 -7.46048e-06 -1.14871e-05 1.74692e-05 1.28245e-05 -7.7818e-07 -1.7089e-05 1.25796e-06 4.92254e-06 8.01187e-06 9.80602e-06 6.68176e-06 1.42273e-05 -5.40997e-07 -5.79108e-06 -1.61889e-05 -4.78026e-06 2.94171e-05 2.08411e-05 8.22336e-06 2.61496e-05 3.06288e-05 1.41318e-05 4.15606e-05 -1.67089e-05 -3.04876e-05 -2.01669e-05
internal_weight=0 399 227 1025 489 421 68 107 57 355 51 536 422 391 366 179 187 162 93 64 92 68 69 172 138 55 83 120 43 304
internal_count=1424 399 227 1025 489 421 68 107 57 355 51 536 422 391 366 179 187 162 93 64 92 68 69 172 138 55 83 120 43 304
is_linear=0
shrinkage=0.05


Tree=12
num_leaves=31
num_cat=0
split_feature=2 2 3 0 3 2 3 2 3 3 3 3 2 2 2 3 3 3 3 3 3 2 2 3 3 2 2 3 0 3
split_gain=1.18072e-05 2.95808e-05 1.78104e-05 1.4155e-05 1.77205e-05 2.56529e-05 1.5875e-05 8.1479e-06 7.61555e-06 7.23701e-06 3.70244e-05 6.83608e-06 6.18522e-06 2.01707e-05 7.20084e-06 1.57664e-05 1.20575e-05 8.52197e-06 9.64362e-06 9.70015e-06 6.92097e-06 7.94201e-06 5.19e-06 5.05636e-06 8.98431e-06 2.44353e-05 1.90532e-05 4.59289e-06 1.30502e-05 3.94332e-06
threshold=0.93750000000000011 1.0208333333333335 0.75000000000000011 0.90000000000000013 0.97222222222222243 0.56250000000000011 1.0277777777777779 1.1041666666666667 0.63888888888888895 0.58333333333333337 0.52777777777777779 0.63888888888888895 0.52083333333333337 0.56250000000000011 0.77083333333333337 0.80555555555555569 0.69444444444444453 0.86111111111111127 0.80555555555555569 0.75000000000000011 0.86111111111111127 0.85416666666666685 0.68750000000000011 0.63888888888888895 0.86111111111111127 0.97916666666666685 0.97916666666666685 0.91666666666666685 0.90000000000000013 0.86111111111111127
decision_type=2 2 2 2 2 2 2 2 2 2 2 2 2 2 2 2 2 2 2 2 2 2 2 2 2 2 2 2 2 2
left_child=3 23 7 11 5 -5 -6 8 -3 10 -7 -1 -13 -14 16 -16 -15 18 19 -18 -17 -22 -19 -2 26 -26 -25 29 -29 -4
right_child=1 2 27 4 6 9 -8 -9 -10 -11 -12 12 13 14 15 20 17 22 -20 -21 21 -23 -24 24 25 -27 -28 28 -30 -31
leaf_value=-6.1877198229347807e-06 7.5708391223623258e-06 1.6598942632602606e-05 -1.5265981116834538e-05 1.7711812932413358e-05 4.9306674797359543e-05 -3.8970362543801059e-05 -1.2465700737348843e-06 2.6915006514173003e-05 -2.0003954004668806e-05 -1.9158561666412617e-05 4.6381167991664072e-05 -1.3886760186118585e-05 5.2767957095056778e-05 3.1805589795112608e-05 -1.7436918108290848e-06 5.1030130968380642e-05 -2.592599636233805e-05 1.9488299503791495e-05 -3.9298260074654794e-05 1.3177553233357945e-05 3.6391226063382678e-05 2.2012634541500699e-06 -8.2927877726966657e-06 1.7997510254328679e-05 3.8618072306105333e-05 -3.0662418230349433e-05 6.6193775273859509e-05 5.7561333960620691e-07 -5.4649200098103158e-05 1.0538445494603365e-05
leaf_weight=114 34 30 57 66 24 27 44 50 27 304 24 31 25 25 87 24 29 40 29 35 35 33 29 46 35 20 37 20 23 20
leaf_count=114 34 30 57 66 24 27 44 50 27 304 24 31 25 25 87 24 29 40 29 35 35 33 29 46 35 20 37 20 23 20
internal_value=0 9.20213e-06 -2.64846e-06 -9.35811e-07 -7.08745e-06 -1.09128e-05 1.65958e-05 1.21833e-05 -7.39272e-07 -1.62345e-05 1.19506e-06 4.67641e-06 7.61127e-06 9.31572e-06 6.34767e-06 1.3516e-05 -5.13948e-07 -5.50153e-06 -1.53795e-05 -4.54124e-06 2.79463e-05 1.9799e-05 7.81219e-06 2.48421e-05 2.90974e-05 1.34252e-05 3.94826e-05 -1.58734e-05 -2.89632e-05 -8.56353e-06
internal_weight=0 399 227 1025 489 421 68 107 57 355 51 536 422 391 366 179 187 162 93 64 92 68 69 172 138 55 83 120 43 77
internal_count=1424 399 227 1025 489 421 68 107 57 355 51 536 422 391 366 179 187 162 93 64 92 68 69 172 138 55 83 120 43 77
is_linear=0
shrinkage=0.05


Tree=13
num_leaves=31
num_cat=0
split_feature=2 2 3 2 0 2 3 2 3 3 2 2 2 2 3 3 3 3 3 3 2 2 3 0 3 3 2 2 0 3
split_gain=1.0656e-05 2.66967e-05 1.6267e-05 1.37325e-05 1.27749e-05 1.61278e-05 1.69062e-05 1.61561e-05 1.78622e-05 6.16957e-06 5.76301e-06 5.58216e-06 1.8204e-05 6.49876e-06 1.42292e-05 1.08819e-05 7.69108e-06 8.70337e-06 8.75439e-06 6.24617e-06 7.16766e-06 4.68398e-06 4.57061e-06 6.51857e-06 4.56337e-06 8.10834e-06 2.20528e-05 1.71955e-05 4.04442e-06 3.93071e-06
threshold=0.93750000000000011 1.0208333333333335 0.80555555555555569 1.1041666666666667 0.90000000000000013 0.77083333333333337 0.97222222222222243 0.56250000000000011 0.86111111111111127 0.63888888888888895 0.64583333333333337 0.52083333333333337 0.56250000000000011 0.77083333333333337 0.80555555555555569 0.69444444444444453 0.86111111111111127 0.80555555555555569 0.75000000000000011 0.86111111111111127 0.85416666666666685 0.68750000000000011 0.63888888888888895 0.90000000000000013 0.63888888888888895 0.86111111111111127 0.97916666666666685 0.97916666666666685 0.90000000000000013 0.52777777777777779
decision_type=2 2 2 2 2 2 2 2 2 2 2 2 2 2 2 2 2 2 2 2 2 2 2 2 2 2 2 2 2 2
left_child=4 24 22 -4 9 6 7 -6 -9 29 -8 -11 -13 15 -15 -14 17 18 -17 -16 -21 -18 28 -24 -2 27 -27 -26 -3 -1
right_child=1 2 3 -5 5 -7 10 8 -10 11 -12 12 13 14 19 16 21 -19 -20 20 -22 -23 23 -25 25 26 -28 -29 -30 -31
leaf_value=9.313535819303305e-06 7.1922948443577351e-06 3.7720941763836896e-05 -3.7262783520948992e-05 1.6426204955530201e-06 1.6826222448192615e-05 -1.7465822618617619e-05 9.6272839073208174e-06 -4.6478111904002145e-06 -4.5972894861279206e-05 -1.3192420010454954e-05 4.5968569975229914e-05 5.0129562616348265e-05 3.0215310456696898e-05 -1.6565065672547536e-06 4.8478620465175487e-05 -2.4629696477812358e-05 1.8513885220272644e-05 -3.7333347377014059e-05 1.2518678309528955e-05 3.4571664270645541e-05 2.0912006165775838e-06 -7.8781471059081583e-06 -1.3043484166079974e-05 1.4821555060036697e-05 1.7097634756045529e-05 3.6687168716785635e-05 -2.912929758167593e-05 6.288408653376422e-05 9.0587084766724502e-06 -1.1552405497690393e-05
leaf_weight=31 34 20 48 43 66 204 20 143 32 31 24 25 25 87 24 29 40 29 35 35 33 29 41 43 46 35 20 37 32 83
leaf_count=31 34 20 48 43 66 204 20 143 32 31 24 25 25 87 24 29 40 29 35 35 33 29 41 43 46 35 20 37 32 83
internal_value=0 8.74202e-06 -2.51603e-06 -1.88789e-05 -8.8902e-07 -6.73308e-06 9.49307e-07 -4.2541e-06 -1.22044e-05 4.44259e-06 2.94498e-05 7.23071e-06 8.84994e-06 6.03029e-06 1.28402e-05 -4.88249e-07 -5.22645e-06 -1.46105e-05 -4.31418e-06 2.6549e-05 1.88091e-05 7.42158e-06 8.43266e-06 1.22076e-06 2.36e-05 2.76425e-05 1.27539e-05 3.75085e-05 2.00826e-05 -5.87833e-06
internal_weight=0 399 227 91 1025 489 285 241 175 536 44 422 391 366 179 187 162 93 64 92 68 69 136 84 172 138 55 83 52 114
internal_count=1424 399 227 91 1025 489 285 241 175 536 44 422 391 366 179 187 162 93 64 92 68 69 136 84 172 138 55 83 52 114
is_linear=0
shrinkage=0.05


Tree=14
num_leaves=31
num_cat=0
split_feature=2 2 3 2 0 3 2 3 3 3 3 2 2 2 3 3 3 3 3 3 2 2 3 0 3 3 2 2 0 0
split_gain=9.61702e-06 2.40937e-05 1.4681e-05 1.23935e-05 1.15293e-05 1.46282e-05 2.0932e-05 1.43533e-05 6.35729e-06 3.3505e-05 5.56803e-06 5.0379e-06 1.64291e-05 5.86513e-06 1.28419e-05 9.8209e-06 6.9412e-06 7.85479e-06 7.90083e-06 5.63717e-06 6.46882e-06 4.22729e-06 4.12497e-06 5.88301e-06 4.11844e-06 7.31778e-06 1.99027e-05 1.5519e-05 3.90756e-06 3.65009e-06
threshold=0.93750000000000011 1.0208333333333335 0.80555555555555569 1.1041666666666667 0.90000000000000013 0.97222222222222243 0.56250000000000011 1.0277777777777779 0.58333333333333337 0.52777777777777779 0.63888888888888895 0.52083333333333337 0.56250000000000011 0.77083333333333337 0.80555555555555569 0.69444444444444453 0.86111111111111127 0.80555555555555569 0.75000000000000011 0.86111111111111127 0.85416666666666685 0.68750000000000011 0.63888888888888895 0.90000000000000013 0.63888888888888895 0.86111111111111127 0.97916666666666685 0.97916666666666685 0.90000000000000013 0.90000000000000013
decision_type=2 2 2 2 2 2 2 2 2 2 2 2 2 2 2 2 2 2 2 2 2 2 2 2 2 2 2 2 2 2
left_child=4 24 22 -4 10 6 -6 -7 9 -8 -1 -12 -13 15 -15 -14 17 18 -17 -16 -21 -18 29 -24 -2 27 -27 28 -26 -3
right_child=1 2 3 -5 5 7 8 -9 -10 -11 11 12 13 14 19 16 21 -19 -20 20 -22 -23 23 -25 25 26 -28 -29 -30 -31
leaf_value=-5.5844173817731968e-06 6.8326817734701123e-06 3.583489102311433e-05 -3.5399644859050271e-05 1.5604889445375045e-06 1.5984911547231165e-05 4.6225106264804104e-05 -3.6552083724085673e-05 -1.8442630376243458e-06 -1.7419750914103217e-05 4.4641654858423864e-05 -1.2532799437101331e-05 4.7623082995414741e-05 2.8704543015919629e-05 -1.5736814039078076e-06 4.6054690058857281e-05 -2.3398211751241591e-05 1.7588190880815093e-05 -3.5466680178772018e-05 1.1892742809972593e-05 3.2843081966607964e-05 1.986640166829933e-06 -7.484240869604852e-06 -1.239131104340209e-05 1.4080477338338402e-05 3.2143008684215606e-05 3.4852809445250645e-05 -2.7672831165546086e-05 5.9739882252304943e-05 2.8865370695712046e-06 8.6057731692790188e-06
leaf_weight=114 34 20 48 43 66 24 27 44 304 24 31 25 25 87 24 29 40 29 35 35 33 29 41 43 21 35 20 37 25 32
leaf_count=114 34 20 48 43 66 24 27 44 304 24 31 25 25 87 24 29 40 29 35 35 33 29 41 43 21 35 20 37 25 32
internal_value=0 8.30492e-06 -2.39023e-06 -1.7935e-05 -8.44569e-07 -6.39642e-06 -9.87199e-06 1.51214e-05 -1.46792e-05 1.65673e-06 4.22046e-06 6.86918e-06 8.40744e-06 5.72877e-06 1.21982e-05 -4.63838e-07 -4.96513e-06 -1.388e-05 -4.09847e-06 2.52215e-05 1.78686e-05 7.0505e-06 8.01102e-06 1.15972e-06 2.242e-05 2.62604e-05 1.21162e-05 3.5633e-05 1.62428e-05 1.90785e-05
internal_weight=0 399 227 91 1025 489 421 68 355 51 536 422 391 366 179 187 162 93 64 92 68 69 136 84 172 138 55 83 46 52
internal_count=1424 399 227 91 1025 489 421 68 355 51 536 422 391 366 179 187 162 93 64 92 68 69 136 84 172 138 55 83 46 52
is_linear=0
shrinkage=0.05


Tree=15
num_leaves=31
num_cat=0
split_feature=3 2 2 3 3 2 2 3 0 3 3 3 2 2 3 3 3 2 2 3 3 0 3 2 3 3 2 3 3 2
split_gain=2.26597e-05 1.48697e-05 1.59613e-05 3.12818e-05 1.98188e-05 1.78933e-05 2.91459e-05 2.33059e-05 1.61225e-05 1.69723e-05 1.47899e-05 1.41812e-05 1.41991e-05 2.72213e-05 2.41287e-05 1.54266e-05 1.23517e-05 1.07368e-05 1.31722e-05 9.43826e-06 9.11179e-06 8.82246e-06 8.8009e-06 1.27472e-05 1.08482e-05 8.22831e-06 8.43357e-06 7.9511e-06 7.65531e-06 7.10016e-06
threshold=0.41666666666666669 1.0208333333333335 0.85416666666666685 1.0277777777777779 0.80555555555555569 0.72916666666666685 0.68750000000000011 0.75000000000000011 0.90000000000000013 0.91666666666666685 0.58333333333333337 0.91666666666666685 0.64583333333333337 0.56250000000000011 0.86111111111111127 0.80555555555555569 0.75000000000000011 1.1875000000000002 1.1458333333333335 0.80555555555555569 1.0277777777777779 0.90000000000000013 0.91666666666666685 1.1041666666666667 0.63888888888888895 0.97222222222222243 0.81250000000000011 0.91666666666666685 0.80555555555555569 0.93750000000000011
decision_type=2 2 2 2 2 2 2 2 2 2 2 2 2 2 2 2 2 2 2 2 2 2 2 2 2 2 2 2 2 2
left_child=-1 2 5 4 29 6 10 -8 9 -6 -2 12 13 14 16 -15 -12 18 22 -14 -13 -9 23 24 -3 26 -7 -10 -28 -4
right_child=1 17 3 -5 8 25 7 21 27 -11 11 20 19 15 -16 -17 -18 -19 -20 -21 -22 -23 -24 -25 -26 -27 28 -29 -30 -31
leaf_value=5.4471797375299504e-05 -3.0925026913865694e-05 -4.1247971235545425e-05 -6.1149859493525585e-07 -3.2108186575429943e-05 3.3239334879908713e-05 -6.6230069092881355e-06 2.3158418624133935e-06 7.1126082158506123e-05 3.697010330282725e-05 -2.0972571077105718e-05 1.4016129445458241e-05 -2.8586908229044639e-05 1.5134869900066407e-05 -7.6500275622804537e-06 -2.8625921961223787e-05 -5.6279392932386452e-05 5.0567293625422999e-05 1.2746479670137265e-05 -4.6136980041234398e-05 5.7202367461286489e-05 7.6649913143438225e-06 3.0678180729200201e-05 -3.0089465635683155e-05 2.8614746464882047e-05 -3.5486375881274316e-07 1.0956039965105361e-05 -1.3896251830229876e-05 7.4562915886582974e-05 -4.2549912423301317e-05 1.7806690998946175e-05
leaf_weight=20 37 23 125 37 42 194 43 28 39 22 59 52 40 73 23 21 38 38 31 20 26 26 40 25 55 42 63 22 37 90
leaf_count=20 37 23 125 37 42 194 43 28 39 22 59 52 40 73 23 21 38 38 31 20 26 26 40 25 55 42 63 22 37 90
internal_value=0 8.75073e-07 3.03339e-06 1.15518e-05 1.63031e-05 -8.73475e-07 5.26034e-06 2.97809e-05 3.2135e-05 1.4604e-05 -8.54036e-07 2.30684e-06 7.66144e-06 1.63455e-06 1.74176e-05 -1.8514e-05 2.83351e-05 -1.13317e-05 -1.65901e-05 2.91574e-05 -1.65029e-05 5.16512e-05 -1.01848e-05 -2.45488e-06 -1.24131e-05 -9.7456e-06 -1.2703e-05 5.05282e-05 -2.44981e-05 7.09844e-06
internal_weight=0 1411 1199 377 340 822 486 97 125 64 389 352 274 214 120 94 97 212 174 60 78 54 143 103 78 336 294 61 100 215
internal_count=1431 1411 1199 377 340 822 486 97 125 64 389 352 274 214 120 94 97 212 174 60 78 54 143 103 78 336 294 61 100 215
is_linear=0
shrinkage=0.05


Tree=16
num_leaves=31
num_cat=0
split_feature=3 2 2 3 3 2 2 3 0 3 3 3 2 2 3 3 3 2 2 3 3 3 3 2 3 3 2 3 3 2
split_gain=2.04504e-05 1.34199e-05 1.4405e-05 2.82318e-05 1.78865e-05 1.61487e-05 2.63042e-05 2.10336e-05 1.45506e-05 1.53175e-05 1.33478e-05 1.27986e-05 1.28147e-05 2.45673e-05 2.17762e-05 1.39225e-05 1.11474e-05 9.68999e-06 1.18879e-05 8.51803e-06 8.22981e-06 8.22339e-06 7.94281e-06 1.15043e-05 9.79047e-06 7.42605e-06 7.61129e-06 7.17586e-06 6.90891e-06 6.40789e-06
threshold=0.41666666666666669 1.0208333333333335 0.85416666666666685 1.0277777777777779 0.80555555555555569 0.72916666666666685 0.68750000000000011 0.75000000000000011 0.90000000000000013 0.91666666666666685 0.58333333333333337 0.91666666666666685 0.64583333333333337 0.56250000000000011 0.86111111111111127 0.80555555555555569 0.75000000000000011 1.1875000000000002 1.1458333333333335 0.80555555555555569 0.86111111111111127 1.0277777777777779 0.91666666666666685 1.1041666666666667 0.63888888888888895 0.97222222222222243 0.81250000000000011 0.91666666666666685 0.80555555555555569 0.93750000000000011
decision_type=2 2 2 2 2 2 2 2 2 2 2 2 2 2 2 2 2 2 2 2 2 2 2 2 2 2 2 2 2 2
left_child=-1 2 5 4 29 6 10 -8 9 -6 -2 12 13 14 16 -15 -12 18 22 -14 -9 -13 23 24 -3 26 -7 -10 -28 -4
right_child=1 17 3 -5 8 25 7 20 27 -11 11 21 19 15 -16 -17 -18 -19 -20 -21 -22 -23 -24 -25 -26 -27 28 -29 -30 -31
leaf_value=5.174820631509647e-05 -2.9378775336128358e-05 -3.9185574223665753e-05 -5.8092342187592298e-07 -3.050277855190625e-05 3.1577369650005408e-05 -6.2918566099723806e-06 2.2000492398822031e-06 6.9324924753835562e-05 3.5121601197319343e-05 -1.9923943130544848e-05 1.3315322021144774e-05 -2.7157563790052131e-05 1.4378126106748825e-05 -7.2675259853234802e-06 -2.7194626897613963e-05 -5.3465423722324579e-05 4.8038929373050404e-05 1.2109157365844831e-05 -4.3830131635918554e-05 5.4342244729923558e-05 3.0259174517206184e-05 7.2817425601757495e-06 -2.8584991796378748e-05 2.7184010366909208e-05 -3.3711981483396482e-07 1.0408237181720671e-05 -1.3201439431877733e-05 7.083477008894657e-05 -4.0422416130339219e-05 1.691635637106022e-05
leaf_weight=20 37 23 125 37 42 194 43 26 39 22 59 52 40 73 23 21 38 38 31 20 28 26 40 25 55 42 63 22 37 90
leaf_count=20 37 23 125 37 42 194 43 26 39 22 59 52 40 73 23 21 38 38 31 20 28 26 40 25 55 42 63 22 37 90
internal_value=0 8.3132e-07 2.88172e-06 1.09742e-05 1.54879e-05 -8.29801e-07 4.99732e-06 2.82918e-05 3.05282e-05 1.38738e-05 -8.11335e-07 2.19149e-06 7.27837e-06 1.55282e-06 1.65467e-05 -1.75883e-05 2.69184e-05 -1.07651e-05 -1.57606e-05 2.76995e-05 4.90686e-05 -1.56778e-05 -9.67559e-06 -2.33213e-06 -1.17924e-05 -9.25832e-06 -1.20678e-05 4.80018e-05 -2.32732e-05 6.74352e-06
internal_weight=0 1411 1199 377 340 822 486 97 125 64 389 352 274 214 120 94 97 212 174 60 54 78 143 103 78 336 294 61 100 215
internal_count=1431 1411 1199 377 340 822 486 97 125 64 389 352 274 214 120 94 97 212 174 60 54 78 143 103 78 336 294 61 100 215
is_linear=0
shrinkage=0.05


Tree=17
num_leaves=31
num_cat=0
split_feature=3 2 2 3 3 2 2 3 0 3 3 3 2 2 3 3 3 2 2 3 2 3 2 3 3 3 2 3 0 3
split_gain=1.84565e-05 1.21115e-05 1.30005e-05 2.54792e-05 1.61426e-05 1.45742e-05 2.37396e-05 1.96181e-05 1.31319e-05 1.38241e-05 1.20464e-05 1.15507e-05 1.15652e-05 2.21719e-05 1.9653e-05 1.25651e-05 1.00605e-05 8.74521e-06 1.07288e-05 7.68752e-06 7.51279e-06 7.16839e-06 1.03827e-05 8.8359e-06 6.77106e-06 6.70201e-06 6.86919e-06 6.47622e-06 6.30519e-06 6.23529e-06
threshold=0.41666666666666669 1.0208333333333335 0.85416666666666685 1.0277777777777779 0.80555555555555569 0.72916666666666685 0.68750000000000011 0.80555555555555569 0.90000000000000013 0.91666666666666685 0.58333333333333337 0.91666666666666685 0.64583333333333337 0.56250000000000011 0.86111111111111127 0.80555555555555569 0.75000000000000011 1.1875000000000002 1.1458333333333335 0.80555555555555569 0.60416666666666685 0.91666666666666685 1.1041666666666667 0.63888888888888895 0.69444444444444453 0.97222222222222243 0.81250000000000011 0.91666666666666685 0.90000000000000013 0.80555555555555569
decision_type=2 2 2 2 2 2 2 2 2 2 2 2 2 2 2 2 2 2 2 2 2 2 2 2 2 2 2 2 2 2
left_child=-1 2 5 4 -4 6 10 24 9 -6 -2 12 13 14 16 -15 28 18 21 -14 -13 22 23 -3 -8 26 -7 -10 -12 -28
right_child=1 17 3 -5 8 25 7 -9 27 -11 11 20 19 15 -16 -17 -18 -19 -20 -21 -22 -23 -24 -25 -26 -27 29 -29 -30 -31
leaf_value=4.9160796406795272e-05 -2.790983783573186e-05 -3.7226294700857304e-05 6.4063429031087906e-06 -2.8977637990661806e-05 2.9998500845284157e-05 -5.9772638616505937e-06 2.445494163631728e-05 5.2608972535901036e-05 3.3365519275554478e-05 -1.8927746962369633e-05 -4.1533700520327938e-07 -3.0018543475307526e-05 1.3659219948749524e-05 -6.9041493377083756e-06 -2.5834894673291435e-05 -5.0792152147291095e-05 4.5636983122676612e-05 1.1503698432965107e-05 -4.1638624891000351e-05 5.1625134110508954e-05 1.0267664421055662e-06 -2.7155742718605327e-05 2.5824808632023634e-05 -3.202648208984597e-07 -1.0637908154522949e-05 9.8878268415449258e-06 -1.2541367051733052e-05 6.7293030224391262e-05 3.3098956808554133e-05 -3.8401295284062589e-05
leaf_weight=20 37 23 215 37 42 194 28 42 39 22 36 40 40 73 23 21 38 38 31 20 38 40 25 55 27 42 63 22 23 37
leaf_count=20 37 23 215 37 42 194 28 42 39 22 36 40 40 73 23 21 38 38 31 20 38 40 25 55 27 42 63 22 23 37
internal_value=0 7.89754e-07 2.73764e-06 1.04255e-05 1.47135e-05 -7.88311e-07 4.74745e-06 2.68772e-05 2.90018e-05 1.31801e-05 -7.70768e-07 2.08192e-06 6.91445e-06 1.47518e-06 1.57194e-05 -1.67089e-05 2.55725e-05 -1.02268e-05 -1.49726e-05 2.63145e-05 -1.48939e-05 -9.19181e-06 -2.21553e-06 -1.12028e-05 7.22754e-06 -8.7954e-06 -1.14644e-05 4.56017e-05 1.26496e-05 -2.21095e-05
internal_weight=0 1411 1199 377 340 822 486 97 125 64 389 352 274 214 120 94 97 212 174 60 78 143 103 78 55 336 294 61 59 100
internal_count=1431 1411 1199 377 340 822 486 97 125 64 389 352 274 214 120 94 97 212 174 60 78 143 103 78 55 336 294 61 59 100
is_linear=0
shrinkage=0.05


Tree=18
num_leaves=31
num_cat=0
split_feature=3 2 2 3 3 2 2 3 0 3 3 3 2 2 3 3 3 3 2 2 3 3 3 2 3 3 2 3 2 2
split_gain=1.66569e-05 1.09306e-05 1.1733e-05 2.2995e-05 1.45687e-05 1.31532e-05 2.14249e-05 1.78764e-05 1.18515e-05 1.24762e-05 1.08719e-05 1.04245e-05 1.04376e-05 2.00102e-05 1.77368e-05 1.134e-05 9.07962e-06 8.0231e-06 7.89255e-06 9.68278e-06 7.48948e-06 6.93799e-06 6.46947e-06 9.37036e-06 7.9744e-06 6.04856e-06 6.19945e-06 5.84479e-06 5.78312e-06 1.44226e-05
threshold=0.41666666666666669 1.0208333333333335 0.85416666666666685 1.0277777777777779 0.80555555555555569 0.72916666666666685 0.68750000000000011 0.75000000000000011 0.90000000000000013 0.91666666666666685 0.58333333333333337 0.91666666666666685 0.64583333333333337 0.56250000000000011 0.86111111111111127 0.80555555555555569 0.75000000000000011 0.86111111111111127 1.1875000000000002 1.1458333333333335 1.0277777777777779 0.80555555555555569 0.91666666666666685 1.1041666666666667 0.63888888888888895 0.97222222222222243 0.81250000000000011 0.91666666666666685 0.93750000000000011 0.89583333333333337
decision_type=2 2 2 2 2 2 2 2 2 2 2 2 2 2 2 2 2 2 2 2 2 2 2 2 2 2 2 2 2 2
left_child=-1 2 5 4 28 6 10 -8 9 -6 -2 12 13 14 16 -15 -12 -9 19 22 -13 -14 23 24 -3 26 -7 -10 29 -4
right_child=1 18 3 -5 8 25 7 17 27 -11 11 20 21 15 -16 -17 -18 -19 -20 -21 -22 -23 -24 -25 -26 -27 -28 -29 -30 -31
leaf_value=4.6702756735612643e-05 -2.6514345889329498e-05 -3.5364979885343929e-05 1.4428309722184761e-05 -2.7528756185642418e-05 2.8498575972792298e-05 -5.6784010863789122e-06 1.4793848814131412e-06 6.4687772492806497e-05 3.1697244393842252e-05 -1.7981360083881142e-05 1.2017077923223567e-05 -2.5104743550540521e-05 1.2976258585695178e-05 -6.5589426998336075e-06 -2.4543150262299767e-05 -4.8252545730065323e-05 4.3355131913956843e-05 2.6115767598509721e-05 1.0928513840649671e-05 -3.9556694337666307e-05 7.7618573693773498e-06 4.9043877806980171e-05 -2.5797955404414095e-05 2.4533568241167815e-05 -3.0425162880088793e-07 9.3934360566414581e-06 -2.1004063986765689e-05 6.3928382091531105e-05 1.5750221192421225e-05 -1.9724601310550888e-05
leaf_weight=20 37 23 69 37 42 194 43 26 39 22 59 52 40 73 23 21 38 28 38 31 26 20 40 25 55 42 100 22 90 56
leaf_count=20 37 23 69 37 42 194 43 26 39 22 59 52 40 73 23 21 38 28 38 31 26 20 40 25 55 42 100 22 90 56
internal_value=0 7.50266e-07 2.60076e-06 9.90424e-06 1.39778e-05 -7.48896e-07 4.51008e-06 2.55334e-05 2.75517e-05 1.25211e-05 -7.3223e-07 1.97782e-06 6.56873e-06 1.40142e-06 1.49334e-05 -1.58735e-05 2.42938e-05 4.46875e-05 -9.71548e-06 -1.42239e-05 -1.41492e-05 2.49988e-05 -8.73222e-06 -2.10475e-06 -1.06427e-05 -8.35563e-06 -1.08912e-05 4.33216e-05 6.08603e-06 -8.72194e-07
internal_weight=0 1411 1199 377 340 822 486 97 125 64 389 352 274 214 120 94 97 54 212 174 78 60 143 103 78 336 294 61 215 125
internal_count=1431 1411 1199 377 340 822 486 97 125 64 389 352 274 214 120 94 97 54 212 174 78 60 143 103 78 336 294 61 215 125
is_linear=0
shrinkage=0.05


Tree=19
num_leaves=31
num_cat=0
split_feature=3 2 2 3 3 2 2 3 0 3 3 3 2 2 3 3 3 2 3 2 3 3 2 3 0 3 2 3 3 2
split_gain=1.50329e-05 9.86486e-06 1.0589e-05 2.0753e-05 1.31482e-05 1.18708e-05 1.9336e-05 1.67453e-05 1.0696e-05 1.12598e-05 9.8119e-06 9.40812e-06 9.41996e-06 1.80592e-05 1.60075e-05 1.02344e-05 8.19436e-06 7.12303e-06 9.52768e-06 6.84506e-06 6.63666e-06 6.52873e-06 6.41222e-06 6.26154e-06 5.69044e-06 5.45883e-06 5.595e-06 5.62735e-06 5.27492e-06 5.21927e-06
threshold=0.41666666666666669 1.0208333333333335 0.85416666666666685 1.0277777777777779 0.80555555555555569 0.72916666666666685 0.68750000000000011 0.80555555555555569 0.90000000000000013 0.91666666666666685 0.58333333333333337 0.91666666666666685 0.64583333333333337 0.56250000000000011 0.86111111111111127 0.80555555555555569 0.75000000000000011 1.1875000000000002 0.69444444444444453 0.60416666666666685 0.69444444444444453 0.63888888888888895 1.1458333333333335 0.80555555555555569 0.90000000000000013 0.97222222222222243 0.81250000000000011 0.80555555555555569 0.91666666666666685 0.93750000000000011
decision_type=2 2 2 2 2 2 2 2 2 2 2 2 2 2 2 2 2 2 2 2 2 2 2 2 2 2 2 2 2 2
left_child=-1 2 5 4 29 6 10 20 9 -6 -2 12 13 14 16 -15 24 18 21 -13 -8 -3 -20 -14 -12 26 -7 -28 -10 -4
right_child=1 17 3 -5 8 25 7 -9 28 -11 11 19 23 15 -16 -17 -18 -19 22 -21 -22 -23 -24 -25 -26 -27 27 -29 -30 -31
leaf_value=4.4367620721459391e-05 -2.5188628498309864e-05 -1.0565112461335957e-05 -8.2858447585749677e-07 -2.6152319190480961e-05 2.7073646820749024e-05 -5.3944802210626041e-06 2.3158225823343465e-05 4.8029869304584633e-05 3.0112380306654348e-05 -1.7082290585015225e-05 -9.954242260492821e-07 -2.7878627297468486e-05 1.2327445983828512e-05 -6.2309950570199547e-06 -2.3315992312627321e-05 -4.5839917471485462e-05 4.1187378136735219e-05 1.0382087700571375e-05 -1.5781725525575104e-05 1.7549640783966569e-06 -1.158461283786757e-05 2.3727494408376515e-05 -4.4802138048301762e-05 4.6591682694270278e-05 3.0843154767669901e-05 8.9237649566105883e-06 -1.086409564965242e-05 -3.5431027493826619e-05 6.0731960217129779e-05 1.4962709384336551e-05
leaf_weight=20 37 35 125 37 42 194 28 42 39 22 36 40 40 73 23 21 38 38 92 38 27 23 24 20 23 42 63 37 22 90
leaf_count=20 37 35 125 37 42 194 28 42 39 22 36 40 40 73 23 21 38 38 92 38 27 23 24 20 23 42 63 37 22 90
internal_value=0 7.12753e-07 2.47072e-06 9.40903e-06 1.32789e-05 -7.1145e-07 4.28458e-06 2.42567e-05 2.61741e-05 1.1895e-05 -6.95618e-07 1.87893e-06 6.24029e-06 1.33135e-06 1.41867e-05 -1.50798e-05 2.30792e-05 -9.2297e-06 -1.35127e-05 -1.34417e-05 6.10265e-06 3.03368e-06 -2.17859e-05 2.37489e-05 1.14162e-05 -7.93785e-06 -1.03467e-05 -1.99539e-05 4.11555e-05 5.78172e-06
internal_weight=0 1411 1199 377 340 822 486 97 125 64 389 352 274 214 120 94 97 212 174 78 55 58 116 60 59 336 294 100 61 215
internal_count=1431 1411 1199 377 340 822 486 97 125 64 389 352 274 214 120 94 97 212 174 78 55 58 116 60 59 336 294 100 61 215
is_linear=0
shrinkage=0.05


Tree=20
num_leaves=31
num_cat=0
split_feature=3 2 2 2 2 3 3 2 3 3 3 3 0 2 3 2 2 0 2 3 2 3 3 2 2 3 2 3 2 3
split_gain=1.39266e-05 1.35992e-05 1.37915e-05 1.22188e-05 1.1945e-05 1.35975e-05 3.20363e-05 1.83241e-05 1.7485e-05 1.45167e-05 9.56802e-06 1.17716e-05 2.30385e-05 9.41917e-06 1.20314e-05 6.85871e-06 1.22445e-05 7.60066e-06 6.32694e-06 1.26941e-05 2.63181e-05 8.23822e-06 5.87812e-06 9.04245e-06 9.18551e-06 1.42629e-05 7.49962e-06 6.75318e-06 5.88262e-06 5.6622e-06
threshold=0.91666666666666685 0.97916666666666685 1.1458333333333335 0.89583333333333337 0.60416666666666685 1.0833333333333337 1.1388888888888891 0.68750000000000011 1.0277777777777779 0.97222222222222243 0.47222222222222227 0.58333333333333337 0.90000000000000013 0.85416666666666685 0.69444444444444453 0.56250000000000011 0.64583333333333337 0.90000000000000013 1.0625000000000002 0.69444444444444453 1.0208333333333335 0.69444444444444453 0.75000000000000011 0.52083333333333337 0.64583333333333337 0.80555555555555569 0.77083333333333337 0.80555555555555569 0.68750000000000011 0.86111111111111127
decision_type=2 2 2 2 2 2 2 2 2 2 2 2 2 2 2 2 2 2 2 2 2 2 2 2 2 2 2 2 2 2
left_child=1 3 18 10 -2 7 -7 -6 9 -9 -1 12 -12 14 15 -13 -17 -18 19 -3 -21 -20 28 -24 25 -25 27 -26 -16 -28
right_child=4 2 -4 -5 5 6 -8 8 -10 -11 11 13 -14 -15 22 16 17 -19 21 20 -22 -23 23 24 26 -27 29 -29 -30 -31
leaf_value=3.2201402911726165e-05 -3.5823163385170382e-05 -3.9463872151547825e-06 -6.7240550230241664e-06 -1.2573723214310512e-05 -4.6318097661095376e-05 5.2692414889558374e-05 -2.0378666564890107e-05 -6.6806341747883943e-06 -3.1099421887322225e-05 3.0060000262324142e-05 -4.8358519006796999e-05 3.0336217522827525e-05 8.884034254244911e-06 2.1580351313982903e-05 4.6686779499465887e-07 -1.9956139764080067e-05 3.0986067149965294e-05 3.5562596459775321e-06 5.4301348349586733e-05 5.7589572315919218e-05 -7.043776609602251e-06 1.7914547830254639e-05 2.6460075241629968e-05 5.8571478575686349e-06 -3.0440662612818414e-06 -4.0991683084884603e-05 1.6429381115604423e-07 2.3307008579591169e-05 -2.2254396839026227e-05 -3.0492385558318351e-05
leaf_weight=28 35 52 58 140 31 30 30 82 45 40 32 44 39 72 52 31 46 56 28 36 28 35 32 32 40 33 61 62 63 20
leaf_count=28 35 52 58 140 31 30 30 82 45 40 32 44 39 72 52 31 46 56 28 36 28 35 32 32 40 33 61 62 63 20
internal_value=0 3.83047e-06 1.44651e-05 9.76096e-07 -8.41347e-06 -4.6951e-06 1.61569e-05 -1.10139e-05 -4.4604e-06 5.36548e-06 3.52922e-06 2.4064e-06 -1.69154e-05 4.5366e-06 2.39123e-06 1.32241e-05 7.56293e-06 1.59266e-05 2.13309e-05 1.44033e-05 2.93125e-05 3.40865e-05 -2.46298e-06 1.44597e-06 -1.78166e-06 -1.79276e-05 3.95326e-06 1.29733e-05 -1.19804e-05 -7.40526e-06
internal_weight=0 1120 237 883 293 258 60 198 167 122 743 715 71 644 572 177 133 102 179 116 64 63 395 280 248 65 183 102 115 81
internal_count=1413 1120 237 883 293 258 60 198 167 122 743 715 71 644 572 177 133 102 179 116 64 63 395 280 248 65 183 102 115 81
is_linear=0
shrinkage=0.05


Tree=21
num_leaves=31
num_cat=0
split_feature=3 2 2 2 2 3 3 2 3 3 3 3 2 2 2 3 2 3 2 3 2 3 3 0 3 3 2 2 0 3
split_gain=1.25688e-05 1.22733e-05 1.24469e-05 1.10274e-05 1.07803e-05 1.22718e-05 2.89128e-05 1.65375e-05 1.57802e-05 1.31013e-05 8.63514e-06 1.0989e-05 5.74968e-06 1.87539e-05 5.71006e-06 1.14564e-05 2.37521e-05 7.43499e-06 5.63728e-06 1.83788e-05 5.44174e-06 8.2338e-06 9.38252e-06 1.43078e-05 1.17075e-05 6.44665e-06 5.27939e-06 1.56599e-05 5.12378e-06 4.25245e-06
threshold=0.91666666666666685 0.97916666666666685 1.1458333333333335 0.89583333333333337 0.60416666666666685 1.0833333333333337 1.1388888888888891 0.68750000000000011 1.0277777777777779 0.97222222222222243 0.47222222222222227 0.52777777777777779 0.56250000000000011 0.64583333333333337 1.0625000000000002 0.69444444444444453 1.0208333333333335 0.69444444444444453 0.68750000000000011 0.75000000000000011 0.85416666666666685 0.86111111111111127 0.75000000000000011 0.90000000000000013 0.69444444444444453 0.69444444444444453 0.93750000000000011 0.81250000000000011 0.90000000000000013 0.58333333333333337
decision_type=2 2 2 2 2 2 2 2 2 2 2 2 2 2 2 2 2 2 2 2 2 2 2 2 2 2 2 2 2 2
left_child=1 3 14 10 -2 7 -7 -6 9 26 -1 -12 -13 -14 15 29 -17 -16 19 -15 21 22 24 -24 -20 -22 27 -9 -4 -3
right_child=4 2 28 -5 5 6 -8 8 -10 -11 11 12 13 18 17 16 -18 -19 20 -21 25 -23 23 -25 -26 -27 -28 -29 -30 -31
leaf_value=3.0591332672104598e-05 -3.4032006847805209e-05 1.2947880366647787e-05 -2.1248962027663044e-05 -1.1945036541354578e-05 -4.4002191251849823e-05 5.0057794675619036e-05 -1.9359733766274685e-05 -2.5988216151270774e-05 -2.9544451052869493e-05 2.855699793144595e-05 -3.4254331185366025e-05 1.3144797584225568e-05 -1.8090345785592557e-05 5.1361359902120271e-05 5.1586281733762009e-05 5.4710095133082689e-05 -6.6915882988333975e-06 1.7018821298344328e-05 5.674309877972322e-06 -4.8483490404164927e-06 -2.6116154913324864e-06 -2.1704806508873968e-05 2.9618752708329612e-05 -6.4785188287521348e-06 -2.1141676781900019e-05 2.6128211082323107e-05 -2.1806118776580799e-05 3.0650365596766978e-05 8.4732562315586047e-06 -1.599349633276385e-05
leaf_weight=28 35 22 29 140 31 30 30 23 45 40 20 123 103 26 28 36 28 35 115 33 32 37 66 47 63 50 33 26 29 30
leaf_count=28 35 22 29 140 31 30 30 23 45 40 20 123 103 26 28 36 28 35 115 33 32 37 66 47 63 50 33 26 29 30
internal_value=0 3.63895e-06 1.37419e-05 9.27291e-07 -7.99279e-06 -4.46034e-06 1.5349e-05 -1.04632e-05 -4.23738e-06 5.0972e-06 3.35276e-06 2.28608e-06 3.3376e-06 1.22871e-06 2.02644e-05 1.36832e-05 2.78469e-05 3.23821e-05 5.47149e-06 1.9922e-05 3.39202e-06 5.11858e-07 3.33666e-06 1.46048e-05 -3.81674e-06 1.49127e-05 -6.3466e-06 4.06491e-06 -6.38785e-06 -3.74907e-06
internal_weight=0 1120 237 883 293 258 60 198 167 122 743 715 695 572 179 116 64 63 469 59 410 328 291 113 178 82 82 49 58 52
internal_count=1413 1120 237 883 293 258 60 198 167 122 743 715 695 572 179 116 64 63 469 59 410 328 291 113 178 82 82 49 58 52
is_linear=0
shrinkage=0.05


Tree=22
num_leaves=31
num_cat=0
split_feature=3 2 2 2 2 3 3 2 3 3 3 3 0 2 3 2 2 0 3 2 3 2 3 3 2 2 3 2 3 2
split_gain=1.13433e-05 1.10766e-05 1.12333e-05 9.95225e-06 9.72924e-06 1.10753e-05 2.60938e-05 1.49251e-05 1.42416e-05 1.18239e-05 7.79321e-06 1.01692e-05 2.07394e-05 7.77238e-06 1.02749e-05 5.95758e-06 1.00984e-05 6.77953e-06 5.23464e-06 5.15333e-06 1.03394e-05 2.14362e-05 6.71008e-06 4.80714e-06 7.79715e-06 7.88374e-06 1.30853e-05 6.78516e-06 6.18806e-06 4.76465e-06
threshold=0.91666666666666685 0.97916666666666685 1.1458333333333335 0.89583333333333337 0.60416666666666685 1.0833333333333337 1.1388888888888891 0.68750000000000011 1.0277777777777779 0.97222222222222243 0.47222222222222227 0.58333333333333337 0.90000000000000013 0.85416666666666685 0.69444444444444453 0.56250000000000011 0.64583333333333337 0.90000000000000013 0.63888888888888895 1.0625000000000002 0.69444444444444453 1.0208333333333335 0.69444444444444453 0.75000000000000011 0.52083333333333337 0.64583333333333337 0.80555555555555569 0.77083333333333337 0.80555555555555569 0.93750000000000011
decision_type=2 2 2 2 2 2 2 2 2 2 2 2 2 2 2 2 2 2 2 2 2 2 2 2 2 2 2 2 2 2
left_child=1 3 19 10 -2 7 -7 -6 9 29 -1 12 -12 14 15 -13 -17 18 -18 20 -3 -22 -21 -16 -25 26 -26 28 -27 -9
right_child=4 2 -4 -5 5 6 -8 8 -10 -11 11 13 -14 -15 23 16 17 -19 -20 22 21 -23 -24 24 25 27 -28 -29 -30 -31
leaf_value=2.9061766443711739e-05 -3.2330405803285042e-05 -3.5616141058898604e-06 -6.0684597413236242e-06 -1.1347784926069186e-05 -4.1802081649356917e-05 4.7554905240758674e-05 -1.8391746889392382e-05 3.861664425835907e-06 -2.8067226956207179e-05 2.7129148477911258e-05 -4.5619817740316648e-05 2.816216532334114e-05 8.6914184346544338e-06 1.9634003332511285e-05 -1.088987939866733e-05 -1.8053816916841652e-05 9.5245703414548204e-06 2.8499776687697578e-06 4.3548999243424845e-05 4.9006966245152789e-05 5.1974590193519057e-05 -6.3570092346968266e-06 1.6167880717798003e-05 2.4479833336954473e-05 6.0783660501328999e-06 -3.1850850700720915e-06 -3.8794797816962914e-05 -7.2361205650254923e-06 2.2039345241219348e-05 -2.0715812312725271e-05
leaf_weight=28 35 52 58 140 31 30 30 49 45 40 32 44 39 72 115 31 20 56 26 28 36 28 35 32 32 40 33 81 62 33
leaf_count=28 35 52 58 140 31 30 30 49 45 40 32 44 39 72 115 31 20 56 26 28 36 28 35 32 32 40 33 81 62 33
internal_value=0 3.457e-06 1.30548e-05 8.80927e-07 -7.59315e-06 -4.23732e-06 1.45816e-05 -9.94002e-06 -4.02551e-06 4.84234e-06 3.18513e-06 2.17177e-06 -1.57869e-05 4.15169e-06 2.20287e-06 1.22137e-05 6.93756e-06 1.4533e-05 2.87558e-05 1.92512e-05 1.2999e-05 2.64545e-05 3.0763e-05 -2.28302e-06 1.25194e-06 -1.7452e-06 -1.67034e-05 3.56782e-06 1.21474e-05 -6.02927e-06
internal_weight=0 1120 237 883 293 258 60 198 167 122 743 715 71 644 572 177 133 102 46 179 116 64 63 395 280 248 65 183 102 82
internal_count=1413 1120 237 883 293 258 60 198 167 122 743 715 71 644 572 177 133 102 46 179 116 64 63 395 280 248 65 183 102 82
is_linear=0
shrinkage=0.05


Tree=23
num_leaves=31
num_cat=0
split_feature=3 2 2 2 2 3 3 2 3 3 3 3 2 2 2 3 2 2 2 3 2 3 0 2 3 3 0 3 3 3
split_gain=1.02373e-05 9.99666e-06 1.0138e-05 8.98191e-06 8.78064e-06 9.99543e-06 2.35496e-05 1.34699e-05 1.28531e-05 1.06711e-05 7.03337e-06 9.56396e-06 4.77749e-06 1.55363e-05 4.89707e-06 1.66641e-05 4.69107e-06 1.37421e-05 4.65088e-06 9.3313e-06 1.93462e-05 6.05585e-06 4.62421e-06 4.46746e-06 7.61537e-06 8.44351e-06 1.27124e-05 9.86894e-06 5.49663e-06 3.83783e-06
threshold=0.91666666666666685 0.97916666666666685 1.1458333333333335 0.89583333333333337 0.60416666666666685 1.0833333333333337 1.1388888888888891 0.68750000000000011 1.0277777777777779 0.97222222222222243 0.47222222222222227 0.52777777777777779 0.56250000000000011 0.64583333333333337 0.68750000000000011 0.75000000000000011 0.81250000000000011 0.93750000000000011 1.0625000000000002 0.69444444444444453 1.0208333333333335 0.69444444444444453 0.90000000000000013 0.85416666666666685 0.86111111111111127 0.75000000000000011 0.90000000000000013 0.69444444444444453 0.69444444444444453 0.58333333333333337
decision_type=2 2 2 2 2 2 2 2 2 2 2 2 2 2 2 2 2 2 2 2 2 2 2 2 2 2 2 2 2 2
left_child=1 3 18 10 -2 7 -7 -6 9 16 -1 -12 -13 -14 15 -15 -9 -18 19 29 -21 -20 -4 24 25 27 -27 -16 -25 -3
right_child=4 2 22 -5 5 6 -8 8 -10 -11 11 12 13 14 23 -17 17 -19 21 20 -22 -23 -24 28 -26 26 -28 -29 -30 -31
leaf_value=2.7608676620210256e-05 -3.0713884823074167e-05 1.247856628403745e-05 -1.9883089884513477e-05 -1.0780395389571952e-05 -3.9711978658282709e-05 4.5177157796085041e-05 -1.7472159876585164e-05 -2.4881885885564692e-05 -2.6663865666907642e-05 2.5772691810743711e-05 -3.2025739947130206e-05 1.1983860717808101e-05 -1.6462012223483435e-05 4.8388753314681642e-05 5.0803588775401617e-06 -5.1346171389785459e-06 2.8924762815362413e-05 -1.9680022470228408e-05 4.6556618687126114e-05 4.9375862029895268e-05 -6.0391580128842705e-06 1.5359485706929784e-05 8.3530169674837648e-06 -2.6977281095241781e-06 -2.0930304221897011e-05 2.7993978734526314e-05 -6.0313674228072683e-06 -1.95400977616604e-05 2.3840100737288596e-05 -1.5015739918453619e-05
leaf_weight=28 35 22 29 140 31 30 30 23 45 40 20 123 103 26 115 33 26 33 28 36 28 35 29 32 37 66 47 63 50 30
leaf_count=28 35 22 29 140 31 30 30 23 45 40 20 123 103 26 115 33 26 33 28 36 28 35 29 32 37 66 47 63 50 30
internal_value=0 3.28415e-06 1.24021e-05 8.36881e-07 -7.21349e-06 -4.02546e-06 1.38525e-05 -9.44302e-06 -3.82423e-06 4.60022e-06 3.02587e-06 2.06319e-06 3.04416e-06 1.12181e-06 4.98351e-06 1.8452e-05 -5.72781e-06 1.73904e-06 1.82886e-05 1.23491e-05 2.51318e-05 2.92249e-05 -5.76504e-06 3.04537e-06 4.35738e-07 3.15238e-06 1.38418e-05 -3.63362e-06 1.34839e-05 -3.38353e-06
internal_weight=0 1120 237 883 293 258 60 198 167 122 743 715 695 572 469 59 82 59 179 116 64 63 58 410 328 291 113 178 82 52
internal_count=1413 1120 237 883 293 258 60 198 167 122 743 715 695 572 469 59 82 59 179 116 64 63 58 410 328 291 113 178 82 52
is_linear=0
shrinkage=0.05


Tree=24
num_leaves=31
num_cat=0
split_feature=3 2 2 2 2 3 3 2 3 3 3 3 0 2 3 2 2 0 3 3 3 2 2 2 2 2 2 3 2 0
split_gain=9.23921e-06 9.02199e-06 9.14958e-06 8.10617e-06 7.92453e-06 9.02088e-06 2.12535e-05 1.21566e-05 1.15999e-05 9.63066e-06 6.34762e-06 8.78339e-06 1.86691e-05 6.41507e-06 8.77424e-06 5.1821e-06 8.32259e-06 6.04684e-06 4.64185e-06 4.42213e-06 2.53591e-05 6.32946e-06 4.26798e-06 4.23369e-06 1.24023e-05 4.22819e-06 3.59908e-06 8.68061e-06 6.18244e-06 6.76005e-06
threshold=0.91666666666666685 0.97916666666666685 1.1458333333333335 0.89583333333333337 0.60416666666666685 1.0833333333333337 1.1388888888888891 0.68750000000000011 1.0277777777777779 0.97222222222222243 0.47222222222222227 0.58333333333333337 0.90000000000000013 0.85416666666666685 0.69444444444444453 0.56250000000000011 0.64583333333333337 0.90000000000000013 0.63888888888888895 0.75000000000000011 0.80555555555555569 1.0625000000000002 1.1875000000000002 0.81250000000000011 0.93750000000000011 0.77083333333333337 0.64583333333333337 0.80555555555555569 0.56250000000000011 0.90000000000000013
decision_type=2 2 2 2 2 2 2 2 2 2 2 2 2 2 2 2 2 2 2 2 2 2 2 2 2 2 2 2 2 2
left_child=1 3 19 10 -2 7 -7 -6 9 23 -1 12 -12 14 15 -13 -17 18 -18 21 -21 -3 -4 -9 -25 26 28 -28 29 -16
right_child=4 2 22 -5 5 6 -8 8 -10 -11 11 13 -14 -15 25 16 17 -19 -20 20 -22 -23 -24 24 -26 -27 27 -29 -30 -31
leaf_value=2.6228243223158645e-05 -2.9178191187903787e-05 9.5078082722466213e-07 -2.0523973482620652e-05 -1.0241376046451477e-05 -3.7726379448412765e-05 4.2918300823657778e-05 -1.6598550355411136e-05 -2.3637792606757063e-05 -2.5330673201501163e-05 2.4484058635607652e-05 -4.3034954398990524e-05 2.6154863355093933e-05 8.4942407295621272e-06 1.7865737117972457e-05 -8.6240811137164524e-06 -1.632802426860097e-05 8.5777854110347114e-06 2.2214527543188263e-06 4.0617820727325478e-05 6.6635452542239076e-05 6.1576957075605886e-06 2.6929819304732029e-05 6.7490558194549527e-06 2.7478524232439949e-05 -1.8696020776009062e-05 -1.0089825652676543e-05 -4.5091765059623867e-06 2.0853950991295279e-05 -1.5682608875347517e-05 2.106843910749174e-05
leaf_weight=28 35 64 26 140 31 30 30 23 45 40 32 44 39 72 41 31 20 56 26 26 52 37 32 26 33 117 74 62 65 36
leaf_count=28 35 64 26 140 31 30 30 23 45 40 32 44 39 72 41 31 20 56 26 26 52 37 32 26 33 117 74 62 65 36
internal_value=0 3.11995e-06 1.17819e-05 7.95036e-07 -6.85282e-06 -3.82418e-06 1.31599e-05 -8.97087e-06 -3.63302e-06 4.37021e-06 2.87458e-06 1.96003e-06 -1.47302e-05 3.8001e-06 2.0296e-06 1.12806e-05 6.35979e-06 1.32551e-05 2.66874e-05 1.73742e-05 2.63169e-05 1.04679e-05 -5.47678e-06 -5.44142e-06 1.65208e-06 -2.11579e-06 1.24019e-06 7.05343e-06 -4.32742e-06 5.25814e-06
internal_weight=0 1120 237 883 293 258 60 198 167 122 743 715 71 644 572 177 133 102 46 179 78 101 58 82 59 395 278 136 142 77
internal_count=1413 1120 237 883 293 258 60 198 167 122 743 715 71 644 572 177 133 102 46 179 78 101 58 82 59 395 278 136 142 77
is_linear=0
shrinkage=0.05


Tree=25
num_leaves=31
num_cat=0
split_feature=3 3 3 2 2 2 3 3 2 0 3 0 2 2 3 0 3 2 2 2 0 2 2 3 3 2 2 2 2 2
split_gain=7.15132e-06 8.20349e-06 1.25721e-05 1.54535e-05 9.09762e-06 1.43431e-05 1.33856e-05 1.19376e-05 9.04942e-06 1.37311e-05 9.41533e-06 1.37182e-05 1.54973e-05 1.09504e-05 7.2395e-06 7.39074e-06 6.39157e-06 1.10163e-05 9.89583e-06 6.75816e-06 7.79491e-06 5.98522e-06 1.20873e-05 7.48399e-06 5.94487e-06 4.95916e-06 4.94947e-06 4.85701e-06 7.48068e-06 3.09899e-06
threshold=1.0833333333333337 0.97222222222222243 1.0277777777777779 0.72916666666666685 0.52083333333333337 0.64583333333333337 0.86111111111111127 0.75000000000000011 1.1458333333333335 0.90000000000000013 0.69444444444444453 0.90000000000000013 0.72916666666666685 0.81250000000000011 0.63888888888888895 0.90000000000000013 0.75000000000000011 0.97916666666666685 0.68750000000000011 0.85416666666666685 0.90000000000000013 0.93750000000000011 0.81250000000000011 0.58333333333333337 0.75000000000000011 0.72916666666666685 0.72916666666666685 0.89583333333333337 1.0208333333333335 0.77083333333333337
decision_type=2 2 2 2 2 2 2 2 2 2 2 2 2 2 2 2 2 2 2 2 2 2 2 2 2 2 2 2 2 2
left_child=1 4 3 -3 7 6 14 -1 10 -10 11 12 -7 25 -6 24 17 19 -18 20 -12 22 -14 -24 -16 -13 -4 -15 -29 -2
right_child=29 2 26 -5 5 8 -8 -9 9 -11 16 13 21 27 15 -17 18 -19 -20 -21 -22 -23 23 -25 -26 -27 -28 28 -30 -31
leaf_value=1.3704269262466659e-07 7.7550153946503999e-08 1.2216461003005792e-06 1.9375504107301824e-05 5.1247550723737256e-05 -3.7209765340354882e-05 5.7773448526859294e-05 1.3917384326065841e-05 3.6818814979120538e-05 -3.5993810384492719e-05 1.1463423531192046e-05 -2.6899765898633632e-05 1.6782873100248363e-06 2.9438149956856962e-05 2.7615548081966529e-05 1.2871534360756138e-05 -3.0021014506726515e-05 -1.765154456548697e-05 -4.0206270742878001e-05 6.1386746997245444e-06 1.2670251500980078e-05 4.723097251706733e-06 2.897072148958354e-05 1.5742063296784182e-05 -2.3247489318123373e-05 -1.8764200406925133e-05 -2.4090234605970438e-05 -1.1087994807894575e-05 -1.3591341989775821e-05 1.9916457555761251e-05 -2.2363170710946182e-05
leaf_weight=47 25 26 20 38 41 25 38 42 35 27 40 33 36 34 33 36 49 23 405 46 38 49 20 32 27 43 40 31 36 40
leaf_count=47 25 26 20 38 41 25 38 42 35 27 40 33 36 34 33 36 49 23 405 46 38 49 20 32 27 43 40 31 36 40
internal_value=0 3.23587e-06 1.55094e-05 3.09245e-05 2.03372e-06 8.68192e-07 -1.23393e-05 1.74475e-05 3.17488e-06 -1.5327e-05 4.39521e-06 1.10581e-05 2.15716e-05 1.43555e-06 -1.96221e-05 -1.21107e-05 6.36958e-07 -8.42466e-06 3.57101e-06 -2.52969e-06 -1.14938e-05 1.49654e-05 7.16699e-06 -8.25151e-06 -1.36455e-06 -1.29013e-05 -9.33495e-07 1.22237e-05 4.41285e-06 -1.37321e-05
internal_weight=0 1390 124 64 1266 1177 175 89 1002 62 940 339 162 177 137 96 601 147 454 124 78 137 88 52 60 76 60 101 67 65
internal_count=1455 1390 124 64 1266 1177 175 89 1002 62 940 339 162 177 137 96 601 147 454 124 78 137 88 52 60 76 60 101 67 65
is_linear=0
shrinkage=0.05


Tree=26
num_leaves=31
num_cat=0
split_feature=3 3 3 2 2 2 3 3 2 0 3 0 2 2 3 0 3 2 2 2 0 2 2 3 3 2 2 2 3 3
split_gain=6.45406e-06 7.40365e-06 1.13463e-05 1.39468e-05 8.2106e-06 1.29447e-05 1.20805e-05 1.07737e-05 8.16711e-06 1.23923e-05 8.49733e-06 1.23807e-05 1.39863e-05 9.88277e-06 6.53365e-06 6.67014e-06 5.7684e-06 9.9422e-06 8.93099e-06 6.09924e-06 7.03491e-06 5.40166e-06 1.09087e-05 6.7543e-06 5.36524e-06 4.47564e-06 4.46689e-06 4.38345e-06 6.89928e-06 3.09771e-06
threshold=1.0833333333333337 0.97222222222222243 1.0277777777777779 0.72916666666666685 0.52083333333333337 0.64583333333333337 0.86111111111111127 0.75000000000000011 1.1458333333333335 0.90000000000000013 0.69444444444444453 0.90000000000000013 0.72916666666666685 0.81250000000000011 0.63888888888888895 0.90000000000000013 0.75000000000000011 0.97916666666666685 0.68750000000000011 0.85416666666666685 0.90000000000000013 0.93750000000000011 0.81250000000000011 0.58333333333333337 0.75000000000000011 0.72916666666666685 0.72916666666666685 0.89583333333333337 0.63888888888888895 0.91666666666666685
decision_type=2 2 2 2 2 2 2 2 2 2 2 2 2 2 2 2 2 2 2 2 2 2 2 2 2 2 2 2 2 2
left_child=1 4 3 -3 7 6 14 -1 10 -10 11 12 -7 25 -6 24 17 19 -18 20 -12 22 -14 -24 -16 -13 -4 -15 -29 -20
right_child=-2 2 26 -5 5 8 -8 -9 9 -11 16 13 21 27 15 -17 18 -19 29 -21 -22 -23 23 -25 -26 -27 -28 28 -30 -31
leaf_value=1.3018942170558458e-07 -1.3045518561949184e-05 1.1605623093111297e-06 1.8406725857857963e-05 4.8685171139751268e-05 -3.534927717537801e-05 5.4884774610400208e-05 1.3221514688522898e-05 3.4977874465117309e-05 -3.4194119736769482e-05 1.0890253448720885e-05 -2.5554776511853562e-05 1.5943719931370155e-06 2.7966241840557715e-05 2.6234769607339439e-05 1.2227957697839221e-05 -2.8519964828572284e-05 -1.6768967740360069e-05 -3.8195957882714502e-05 8.1189676018454738e-06 1.2036740150980894e-05 4.4869425724563805e-06 2.7522186190959028e-05 1.4954959939927904e-05 -2.2085115983827566e-05 -1.782598906343251e-05 -2.28857240493431e-05 -1.0533595354900173e-05 -7.0264172245515523e-06 2.7139390956356443e-05 -2.5284680179601279e-06
leaf_weight=47 65 26 20 38 41 25 38 42 35 27 40 33 36 34 33 36 49 23 318 46 38 49 20 32 27 43 40 45 22 87
leaf_count=47 65 26 20 38 41 25 38 42 35 27 40 33 36 34 33 36 49 23 318 46 38 49 20 32 27 43 40 45 22 87
internal_value=0 3.07407e-06 1.47339e-05 2.93783e-05 1.93204e-06 8.24782e-07 -1.17223e-05 1.65752e-05 3.01614e-06 -1.45606e-05 4.17545e-06 1.05052e-05 2.0493e-05 1.36377e-06 -1.8641e-05 -1.15052e-05 6.0511e-07 -8.00343e-06 3.39246e-06 -2.4032e-06 -1.09191e-05 1.42171e-05 6.80864e-06 -7.83893e-06 -1.29632e-06 -1.22562e-05 -8.86822e-07 1.16125e-05 4.19221e-06 5.83174e-06
internal_weight=0 1390 124 64 1266 1177 175 89 1002 62 940 339 162 177 137 96 601 147 454 124 78 137 88 52 60 76 60 101 67 405
internal_count=1455 1390 124 64 1266 1177 175 89 1002 62 940 339 162 177 137 96 601 147 454 124 78 137 88 52 60 76 60 101 67 405
is_linear=0
shrinkage=0.05


Tree=27
num_leaves=31
num_cat=0
split_feature=3 3 3 2 2 2 3 3 2 0 3 0 2 2 3 0 3 2 2 2 0 2 2 3 3 2 2 2 2 2
split_gain=5.82479e-06 6.6818e-06 1.024e-05 1.2587e-05 7.41007e-06 1.16826e-05 1.09027e-05 9.72327e-06 7.37081e-06 1.11841e-05 7.66884e-06 1.11735e-05 1.26227e-05 8.9192e-06 5.89662e-06 6.0198e-06 5.20598e-06 8.97283e-06 8.06021e-06 5.50456e-06 6.34901e-06 4.875e-06 9.84514e-06 6.09576e-06 4.84213e-06 4.03926e-06 4.03137e-06 3.95607e-06 6.83076e-06 2.79684e-06
threshold=1.0833333333333337 0.97222222222222243 1.0277777777777779 0.72916666666666685 0.52083333333333337 0.64583333333333337 0.86111111111111127 0.75000000000000011 1.1458333333333335 0.90000000000000013 0.69444444444444453 0.90000000000000013 0.72916666666666685 0.81250000000000011 0.63888888888888895 0.90000000000000013 0.75000000000000011 0.97916666666666685 0.68750000000000011 0.85416666666666685 0.90000000000000013 0.93750000000000011 0.81250000000000011 0.58333333333333337 0.75000000000000011 0.72916666666666685 0.72916666666666685 0.89583333333333337 1.0208333333333335 0.77083333333333337
decision_type=2 2 2 2 2 2 2 2 2 2 2 2 2 2 2 2 2 2 2 2 2 2 2 2 2 2 2 2 2 2
left_child=1 4 3 -3 7 6 14 -1 10 -10 11 12 -7 25 -6 24 17 19 -18 20 -12 22 -14 -24 -16 -13 -4 -15 -29 -2
right_child=29 2 26 -5 5 8 -8 -9 9 -11 16 13 21 27 15 -17 18 -19 -20 -21 -22 -23 23 -25 -26 -27 -28 28 -30 -31
leaf_value=1.2368050483154491e-07 7.2594764060340819e-07 1.1025357637733509e-06 1.7486389961050008e-05 4.6250914575514462e-05 -3.3581812714124327e-05 5.2140536252409223e-05 1.2560439446181255e-05 3.322898099300108e-05 -3.2484414384401002e-05 1.0345738836029476e-05 -2.4277037682622903e-05 1.5146554550014888e-06 2.6567930116369908e-05 2.4923031399820876e-05 1.1616560567001052e-05 -2.7093964729650742e-05 -1.5930521153584739e-05 -3.6286160162569064e-05 5.5401537445976392e-06 1.1434900949572457e-05 4.2625966048753506e-06 2.6146077095977582e-05 1.4207212357177923e-05 -2.0980858727170927e-05 -1.6934689402761353e-05 -2.1741436344306096e-05 -1.0006915210141188e-05 -1.3221728048876919e-05 1.8797430594632815e-05 -2.0592736416347182e-05
leaf_weight=47 25 26 20 38 41 25 38 42 35 27 40 33 36 34 33 36 49 23 405 46 38 49 20 32 27 43 40 31 36 40
leaf_count=47 25 26 20 38 41 25 38 42 35 27 40 33 36 34 33 36 49 23 405 46 38 49 20 32 27 43 40 31 36 40
internal_value=0 2.92037e-06 1.39972e-05 2.79094e-05 1.83543e-06 7.83543e-07 -1.11362e-05 1.57464e-05 2.86533e-06 -1.38326e-05 3.96668e-06 9.97992e-06 1.94684e-05 1.29559e-06 -1.7709e-05 -1.09299e-05 5.74855e-07 -7.60326e-06 3.22283e-06 -2.28304e-06 -1.03731e-05 1.35063e-05 6.46821e-06 -7.44699e-06 -1.2315e-06 -1.16434e-05 -8.4248e-07 1.10319e-05 3.9826e-06 -1.23932e-05
internal_weight=0 1390 124 64 1266 1177 175 89 1002 62 940 339 162 177 137 96 601 147 454 124 78 137 88 52 60 76 60 101 67 65
internal_count=1455 1390 124 64 1266 1177 175 89 1002 62 940 339 162 177 137 96 601 147 454 124 78 137 88 52 60 76 60 101 67 65
is_linear=0
shrinkage=0.05


Tree=28
num_leaves=31
num_cat=0
split_feature=3 3 3 2 2 2 3 3 3 2 3 2 2 3 0 2 3 3 3 3 2 2 2 2 2 3 0 2 2 0
split_gain=5.25687e-06 6.03032e-06 9.24163e-06 1.13597e-05 6.68759e-06 1.05435e-05 9.83968e-06 8.77525e-06 6.85561e-06 7.84368e-06 6.57784e-06 9.07264e-06 1.11273e-05 9.1563e-06 8.04758e-06 7.22419e-06 1.79355e-05 8.71741e-06 1.536e-05 7.09531e-06 8.64878e-06 1.28854e-05 6.85897e-06 6.15335e-06 5.93193e-06 5.3217e-06 5.43287e-06 4.92933e-06 9.97707e-06 4.90089e-06
threshold=1.0833333333333337 0.97222222222222243 1.0277777777777779 0.72916666666666685 0.52083333333333337 0.64583333333333337 0.86111111111111127 0.75000000000000011 0.91666666666666685 0.77083333333333337 0.86111111111111127 1.1041666666666667 1.0625000000000002 0.75000000000000011 0.90000000000000013 0.97916666666666685 0.75000000000000011 0.52777777777777779 0.58333333333333337 0.52777777777777779 0.68750000000000011 0.72916666666666685 0.68750000000000011 0.77083333333333337 0.81250000000000011 0.63888888888888895 0.90000000000000013 0.97916666666666685 0.85416666666666685 0.90000000000000013
decision_type=2 2 2 2 2 2 2 2 2 2 2 2 2 2 2 2 2 2 2 2 2 2 2 2 2 2 2 2 2 2
left_child=1 4 3 -3 7 6 25 -1 10 -10 11 12 14 29 19 17 -17 -16 -19 -7 -21 -22 -20 -23 -24 -6 -27 28 -12 -13
right_child=-2 2 -4 -5 5 8 -8 -9 9 -11 27 13 -14 -15 15 16 -18 18 22 20 21 23 24 -25 -26 26 -28 -29 -30 -31
leaf_value=1.1749634335927189e-07 -1.1773579790315126e-05 1.0474077358734436e-06 -8.0035584611929762e-07 4.3938369689337721e-05 -3.1902722087291233e-05 3.2418573742428899e-05 1.1932417692150921e-05 3.1567532113556462e-05 -3.395350612481707e-05 -1.614310342120007e-06 7.8557709044120702e-06 -1.5290556439140347e-05 3.2316665494684405e-05 -3.352717438688022e-05 -3.5225552995183061e-05 -8.2491532476992834e-06 5.1756539833149879e-05 3.4995987607544525e-05 1.5769853579795697e-05 -1.9873006987899287e-05 3.7230763950252113e-05 -1.4582763916613269e-05 -1.9108912980597353e-05 7.9338143574172972e-06 -2.119565717159141e-06 -1.1699271514468517e-06 -2.573926840846576e-05 -3.2581955338173429e-06 4.56310505577331e-05 1.6662819204308712e-05
leaf_weight=47 65 26 60 38 41 28 38 42 25 75 44 24 34 33 23 33 20 24 29 29 35 35 98 228 108 60 36 24 29 24
leaf_count=47 65 26 60 38 41 28 38 42 25 75 44 24 34 33 23 33 20 24 29 29 35 35 98 228 108 60 36 24 29 24
internal_value=0 2.77435e-06 1.32973e-05 2.65139e-05 1.74366e-06 7.44366e-07 -1.05794e-05 1.49591e-05 2.72206e-06 -9.69911e-06 4.09913e-06 2.61697e-06 4.39244e-06 -1.32526e-05 3.01646e-06 -2.5422e-06 1.43945e-05 -5.72534e-06 -3.10563e-06 8.26195e-06 6.19349e-06 8.73017e-06 -6.99685e-06 4.93731e-06 -1.02019e-05 -1.68235e-05 -1.03834e-05 1.63996e-05 2.28624e-05 6.86131e-07
internal_weight=0 1390 124 64 1266 1177 175 89 1002 100 902 805 724 81 690 335 53 282 259 355 327 298 235 263 206 137 96 97 73 48
internal_count=1455 1390 124 64 1266 1177 175 89 1002 100 902 805 724 81 690 335 53 282 259 355 327 298 235 263 206 137 96 97 73 48
is_linear=0
shrinkage=0.05


Tree=29
num_leaves=31
num_cat=0
split_feature=2 2 3 3 2 2 3 2 3 0 2 2 3 2 3 2 3 3 2 2 3 3 3 3 0 3 2 2 2 3
split_gain=5.27717e-06 8.77066e-06 8.0968e-06 5.92135e-06 4.48987e-06 4.44345e-06 6.37489e-06 1.66059e-05 1.95053e-05 7.503e-06 1.32645e-05 1.25356e-05 6.172e-06 5.88865e-06 8.05652e-06 5.81415e-06 1.85957e-05 1.7823e-05 6.95242e-06 5.47059e-06 1.62934e-05 5.18237e-06 1.2156e-05 4.80284e-06 4.90317e-06 4.37003e-06 4.24644e-06 6.40831e-06 4.07849e-06 1.56989e-05
threshold=1.2291666666666667 1.1458333333333335 1.0833333333333337 0.75000000000000011 0.77083333333333337 0.68750000000000011 0.97222222222222243 0.93750000000000011 1.0277777777777779 0.90000000000000013 0.85416666666666685 0.72916666666666685 0.58333333333333337 0.52083333333333337 0.86111111111111127 1.0208333333333335 0.86111111111111127 0.80555555555555569 0.97916666666666685 0.64583333333333337 0.75000000000000011 0.86111111111111127 0.75000000000000011 0.63888888888888895 0.90000000000000013 0.75000000000000011 0.72916666666666685 0.77083333333333337 0.77083333333333337 0.69444444444444453
decision_type=2 2 2 2 2 2 2 2 2 2 2 2 2 2 2 2 2 2 2 2 2 2 2 2 2 2 2 2 2 2
left_child=1 2 5 -3 -4 13 9 8 -8 11 12 -7 -11 21 19 16 18 -17 -12 23 -21 22 -1 -15 25 -25 -14 -28 29 -13
right_child=-2 3 4 -5 -6 6 7 -9 -10 10 15 28 26 14 -16 17 -18 -19 -20 20 -22 -23 -24 24 -26 -27 27 -29 -30 -31
leaf_value=1.1162192095071078e-07 2.4792107724351807e-05 -1.9194569018588442e-06 1.2783313577529043e-06 -3.7797726564230801e-05 -2.6004866920534129e-05 3.4000640626736853e-05 6.8918921391267096e-05 -1.54368381772656e-05 8.9371664974654163e-06 1.1807673931448684e-05 -3.1631878135323697e-06 2.6534835997154004e-05 -3.0144147390006661e-05 -3.0307585345836722e-05 8.280638603646804e-06 1.2898451080088439e-05 4.5497069410938662e-05 -3.5958590901178211e-05 2.7710912779540473e-05 2.2205109671631363e-05 -2.6088949544505488e-05 -1.1481618631755144e-05 4.1728425588059637e-05 1.1094228477414811e-05 -2.4452303248128576e-05 -1.6029460271561724e-05 7.2914873787856393e-06 -1.7348576796433445e-05 7.5155626540008063e-06 -3.065432157503286e-05
leaf_weight=47 25 23 25 23 38 43 23 25 33 26 88 20 34 41 83 56 34 28 23 40 31 23 28 33 36 27 37 92 340 30
leaf_count=47 25 23 25 23 38 43 23 25 33 26 88 20 34 41 83 56 34 28 23 40 31 23 28 33 36 27 37 92 340 30
internal_value=0 1.62008e-06 2.33396e-06 -1.98586e-05 -1.51782e-05 3.16914e-06 5.0426e-06 1.84462e-05 3.35725e-05 3.76682e-06 -1.01154e-06 8.37964e-06 -1.08158e-05 -1.31947e-06 -4.88948e-06 7.08019e-06 1.31441e-05 -3.38723e-06 3.23415e-06 -1.01449e-05 1.11897e-06 9.28127e-06 1.56486e-05 -1.59823e-05 -9.86426e-06 -1.11143e-06 -1.44244e-05 -1.02813e-05 5.55477e-06 -7.77866e-06
internal_weight=0 1430 1384 46 63 1321 932 81 56 851 418 433 189 389 291 229 145 84 111 208 71 98 75 137 96 60 163 129 390 50
internal_count=1455 1430 1384 46 63 1321 932 81 56 851 418 433 189 389 291 229 145 84 111 208 71 98 75 137 96 60 163 129 390 50
is_linear=0
shrinkage=0.05


Tree=30
num_leaves=31
num_cat=0
split_feature=2 2 3 2 3 3 0 3 3 2 3 2 2 3 2 0 3 2 3 3 2 3 3 0 2 2 3 2 3 3
split_gain=7.20257e-06 8.02626e-06 7.83994e-06 6.95833e-06 2.92738e-05 8.34154e-06 6.87736e-06 6.16764e-06 7.27753e-06 1.301e-05 5.81941e-06 9.50146e-06 1.19668e-05 8.0977e-06 7.59636e-06 1.3611e-05 4.35389e-06 3.7481e-06 9.79268e-06 9.76268e-06 1.95734e-05 1.26574e-05 1.0706e-05 3.58352e-06 3.11849e-06 5.74644e-06 4.28411e-06 1.31224e-05 2.89135e-06 3.06411e-06
threshold=0.89583333333333337 1.1875000000000002 1.1388888888888891 0.81250000000000011 0.86111111111111127 0.58333333333333337 0.90000000000000013 0.86111111111111127 0.91666666666666685 0.93750000000000011 0.91666666666666685 0.64583333333333337 0.68750000000000011 1.0277777777777779 0.47916666666666669 0.90000000000000013 0.80555555555555569 0.97916666666666685 0.58333333333333337 0.52777777777777779 1.0208333333333335 0.75000000000000011 0.80555555555555569 0.90000000000000013 0.64583333333333337 0.56250000000000011 0.86111111111111127 0.72916666666666685 0.75000000000000011 0.63888888888888895
decision_type=2 2 2 2 2 2 2 2 2 2 2 2 2 2 2 2 2 2 2 2 2 2 2 2 2 2 2 2 2 2
left_child=2 7 3 10 5 -5 -6 17 -9 -10 14 -12 -13 -14 15 -1 -16 18 -2 -19 21 -21 -22 -3 25 -18 27 -26 29 -20
right_child=1 23 -4 4 6 -7 -8 8 9 -11 11 12 13 -15 16 -17 24 19 28 20 22 -23 -24 -25 26 -27 -28 -29 -30 -31
leaf_value=-8.5695155576104298e-06 -4.249089146138762e-05 -1.1232046138805649e-06 3.0842091036902274e-05 2.4596038001618582e-05 4.9518083829348651e-05 -1.0182172904023901e-05 1.7103468454079027e-05 -3.7367318231594657e-05 2.1094573647436243e-05 -2.0487306969228267e-05 4.0897680282096888e-06 -5.5782284269818258e-05 4.1351851798347471e-06 -3.2932907701111759e-05 -5.2968887394058024e-06 4.4680976952804488e-05 1.0916298644867942e-05 2.8046535793691876e-05 -1.5319052472477779e-05 -3.8374037383339153e-06 -9.5273650476883638e-06 4.5990362064912921e-05 -4.8797868675180887e-05 2.8086696000259723e-05 2.5613767220713799e-05 -2.3804681173218841e-05 2.7843619150539429e-05 -2.2065282381070712e-05 -1.5631904766956319e-05 8.2841626615184157e-06
leaf_weight=24 22 21 20 20 36 125 30 36 24 87 52 21 34 26 402 24 26 25 20 26 100 25 21 21 31 22 26 27 45 44
leaf_count=24 22 21 20 20 36 125 30 36 24 87 52 21 34 26 402 24 26 25 20 26 100 25 21 21 31 22 26 27 45 44
internal_value=0 -7.46919e-06 -1.30051e-07 -7.98996e-07 7.17964e-06 -5.38518e-06 3.47842e-05 -9.32169e-06 -1.78323e-05 -1.14966e-05 -3.15353e-06 -1.25896e-05 -2.32974e-05 -1.19277e-05 -9.97174e-07 1.80557e-05 -2.70979e-06 -5.50748e-06 -1.20619e-05 -1.14894e-06 -5.39247e-06 2.0588e-05 -1.63429e-05 1.34817e-05 5.16908e-06 -4.99748e-06 1.09786e-05 3.41835e-06 -5.92031e-06 9.08158e-07
internal_weight=0 517 946 926 211 145 66 475 147 111 715 133 81 60 582 48 534 328 131 197 172 51 121 42 132 48 84 58 109 64
internal_count=1463 517 946 926 211 145 66 475 147 111 715 133 81 60 582 48 534 328 131 197 172 51 121 42 132 48 84 58 109 64
is_linear=0
shrinkage=0.05


Tree=31
num_leaves=31
num_cat=0
split_feature=2 2 3 2 3 3 0 3 3 2 3 2 2 3 2 0 3 2 3 3 2 3 3 0 2 2 3 2 3 0
split_gain=6.50032e-06 7.2437e-06 7.07554e-06 6.27989e-06 2.64196e-05 7.52824e-06 6.20681e-06 5.5663e-06 6.56797e-06 1.17415e-05 5.25201e-06 8.57506e-06 1.08e-05 7.30817e-06 6.85571e-06 1.22839e-05 3.92939e-06 3.38266e-06 8.83789e-06 8.81082e-06 1.7665e-05 1.14233e-05 9.66216e-06 3.23412e-06 2.81444e-06 5.18616e-06 3.86641e-06 1.18429e-05 2.79935e-06 6.0634e-06
threshold=0.89583333333333337 1.1875000000000002 1.1388888888888891 0.81250000000000011 0.86111111111111127 0.58333333333333337 0.90000000000000013 0.86111111111111127 0.91666666666666685 0.93750000000000011 0.91666666666666685 0.64583333333333337 0.68750000000000011 1.0277777777777779 0.47916666666666669 0.90000000000000013 0.80555555555555569 0.97916666666666685 0.58333333333333337 0.52777777777777779 1.0208333333333335 0.75000000000000011 0.80555555555555569 0.90000000000000013 0.64583333333333337 0.56250000000000011 0.86111111111111127 0.72916666666666685 0.75000000000000011 0.90000000000000013
decision_type=2 2 2 2 2 2 2 2 2 2 2 2 2 2 2 2 2 2 2 2 2 2 2 2 2 2 2 2 2 2
left_child=2 7 3 10 5 -5 -6 17 -9 -10 14 -12 -13 -14 15 -1 -16 18 -2 -19 21 -21 -22 -3 25 -18 27 -26 29 -7
right_child=1 23 -4 4 6 28 -8 8 9 -11 11 12 13 -15 16 -17 24 19 -20 20 22 -23 -24 -25 26 -27 -28 -29 -30 -31
leaf_value=-8.1410396281474572e-06 -4.0366346762642607e-05 -1.0670435759017156e-06 2.9299985872057736e-05 2.3366235745925225e-05 4.7042177377281606e-05 -1.6716316315216466e-05 1.6248295387413237e-05 -3.5498954144309716e-05 2.003984235064612e-05 -1.9462941631429894e-05 3.8852806990409865e-06 -5.2993168529134156e-05 3.9284259187030227e-06 -3.1286261974645853e-05 -5.0320443937130339e-06 4.2446928334053767e-05 1.0370482889881645e-05 2.6644209865480664e-05 -5.6242935927102822e-06 -3.6455336017892343e-06 -9.0509968504193233e-06 4.3690841295756404e-05 -4.6357974150894387e-05 2.6682360164288967e-05 2.4333078979379351e-05 -2.2614447450244124e-05 2.6451438987770906e-05 -2.096201952318316e-05 -1.7978719162264106e-05 1.3005592313675153e-05
leaf_weight=24 22 21 20 20 36 37 30 36 24 87 52 21 34 26 402 24 26 25 109 26 100 25 21 21 31 22 26 27 56 32
leaf_count=24 22 21 20 20 36 37 30 36 24 87 52 21 34 26 402 24 26 25 109 26 100 25 21 21 31 22 26 27 56 32
internal_value=0 -7.09573e-06 -1.23549e-07 -7.59046e-07 6.82066e-06 -5.11592e-06 3.3045e-05 -8.85561e-06 -1.69407e-05 -1.09218e-05 -2.99585e-06 -1.19601e-05 -2.21325e-05 -1.13313e-05 -9.47315e-07 1.71529e-05 -2.5743e-06 -5.23211e-06 -1.14588e-05 -1.0915e-06 -5.12285e-06 1.95586e-05 -1.55258e-05 1.28077e-05 4.91063e-06 -4.74761e-06 1.04296e-05 3.24743e-06 -9.67306e-06 -2.93224e-06
internal_weight=0 517 946 926 211 145 66 475 147 111 715 133 81 60 582 48 534 328 131 197 172 51 121 42 132 48 84 58 125 69
internal_count=1463 517 946 926 211 145 66 475 147 111 715 133 81 60 582 48 534 328 131 197 172 51 121 42 132 48 84 58 125 69
is_linear=0
shrinkage=0.05


Tree=32
num_leaves=31
num_cat=0
split_feature=3 2 2 3 2 3 0 2 3 3 3 2 3 0 2 2 3 0 3 2 2 3 2 0 0 3 3 3 2 3
split_gain=5.95798e-06 1.02021e-05 6.57079e-06 8.48073e-06 8.30824e-06 6.739e-06 2.63157e-05 7.82552e-06 7.40995e-06 1.15519e-05 8.80961e-06 8.58326e-06 6.57276e-06 3.07129e-06 3.05837e-06 3.01865e-06 2.87335e-05 5.60165e-06 4.90207e-06 7.73899e-06 9.747e-06 6.59563e-06 6.54624e-06 1.01467e-05 3.81156e-06 1.96923e-05 1.92857e-05 3.45807e-06 8.48717e-06 3.32188e-06
threshold=0.47222222222222227 0.85416666666666685 0.89583333333333337 0.58333333333333337 1.1875000000000002 0.63888888888888895 0.90000000000000013 1.0208333333333335 0.86111111111111127 0.91666666666666685 0.80555555555555569 0.93750000000000011 1.1388888888888891 0.90000000000000013 1.1458333333333335 0.81250000000000011 0.86111111111111127 0.90000000000000013 0.91666666666666685 0.64583333333333337 0.68750000000000011 1.0277777777777779 0.47916666666666669 0.90000000000000013 0.90000000000000013 0.69444444444444453 0.69444444444444453 0.80555555555555569 0.52083333333333337 0.75000000000000011
decision_type=2 2 2 2 2 2 2 2 2 2 2 2 2 2 2 2 2 2 2 2 2 2 2 2 2 2 2 2 2 2
left_child=1 -1 12 -4 5 6 -5 8 10 -10 -7 -11 15 -6 -9 18 24 -18 22 -20 -21 -22 23 -2 26 -26 -17 28 -24 -28
right_child=2 -3 3 4 13 7 -8 14 9 11 -12 -13 -14 -15 -16 16 17 -19 19 20 21 -23 27 -25 25 -27 29 -29 -30 -31
leaf_value=-5.8404578885529193e-06 -6.0948343319899365e-06 4.2070628041983581e-05 -2.8867125957879391e-05 4.8140458733067377e-05 2.271639386890456e-06 -3.7151234134876885e-06 -2.7495609158548809e-05 -1.5169899222475205e-05 -4.7392092372839605e-05 1.9037850355137685e-05 2.6538848942436744e-05 -1.8445447027001398e-05 2.783498650387628e-05 2.9981229017721491e-05 -3.3179176785653969e-05 -5.0151033873488712e-05 4.469006908038864e-05 1.5435880739384327e-05 3.6910162617249839e-06 -5.0343510035114981e-05 3.7320071843329494e-06 -2.9721950200977375e-05 -3.5625206233124205e-05 4.087108470190762e-05 3.3797416668116617e-05 -2.4007932348895875e-05 1.7702303812257017e-05 4.6650979625569153e-06 -2.9197658229309408e-06 -7.8420209631855997e-06
leaf_weight=25 23 20 43 23 20 97 23 126 21 24 32 42 20 20 29 27 36 30 52 21 34 26 21 23 26 34 20 132 358 35
leaf_count=25 23 20 43 23 20 97 23 126 21 24 32 42 20 20 29 27 36 30 52 21 34 26 21 23 26 34 20 132 358 35
internal_value=0 1.54534e-05 -3.02645e-06 -7.63832e-06 -5.64086e-06 -7.72885e-06 1.03224e-05 -9.96701e-06 -3.81555e-06 -1.50923e-05 3.78974e-06 -4.81516e-06 -5.14535e-07 1.61264e-05 -1.85394e-05 -1.14593e-06 4.13404e-06 3.13927e-05 -2.73757e-06 -1.13621e-05 -2.10259e-05 -1.07647e-05 -6.78203e-07 1.73881e-05 -8.53549e-06 1.04105e-06 -1.55427e-05 -2.30453e-06 -4.73194e-06 1.44682e-06
internal_weight=0 45 1418 500 457 417 46 371 216 87 129 66 918 40 155 898 208 66 690 133 81 60 557 46 142 60 82 511 379 55
internal_count=1463 45 1418 500 457 417 46 371 216 87 129 66 918 40 155 898 208 66 690 133 81 60 557 46 142 60 82 511 379 55
is_linear=0
shrinkage=0.05


Tree=33
num_leaves=31
num_cat=0
split_feature=2 2 3 2 3 3 0 3 3 2 3 2 0 2 3 2 0 3 3 2 3 2 3 3 3 3 3 0 3 3
split_gain=5.39091e-06 5.86463e-06 5.75433e-06 5.21982e-06 2.1355e-05 6.78037e-06 5.05549e-06 4.48578e-06 5.28246e-06 9.58239e-06 4.47557e-06 7.47015e-06 1.13164e-05 6.63851e-06 6.00522e-06 1.58276e-05 3.89876e-06 4.30824e-06 5.01214e-06 3.47226e-06 7.69079e-06 1.47915e-05 1.00212e-05 8.77142e-06 7.68328e-06 2.67914e-06 3.08726e-06 2.63917e-06 1.63098e-05 9.30327e-06
threshold=0.89583333333333337 1.1875000000000002 1.1388888888888891 0.81250000000000011 0.86111111111111127 0.58333333333333337 0.90000000000000013 0.86111111111111127 0.91666666666666685 0.93750000000000011 0.86111111111111127 0.47916666666666669 0.90000000000000013 0.52083333333333337 0.80555555555555569 0.72916666666666685 0.90000000000000013 0.97222222222222243 0.91666666666666685 0.97916666666666685 0.52777777777777779 1.0208333333333335 0.75000000000000011 0.80555555555555569 0.58333333333333337 0.75000000000000011 0.63888888888888895 0.90000000000000013 0.75000000000000011 0.75000000000000011
